tree
version=v4
num_class=5
num_tree_per_iteration=5
label_index=0
max_feature_idx=2
objective=multiclass num_class:5
feature_names=months CPUE_bin biomass_bin
feature_infos=-1:6:10:8:11:3:7:4:5:9 -1:0:1:2:3 -1:1:0:3:2
tree_sizes=375 379 464 1298 1300 385 389 477 1312 1325 386 391 476 1314 1321 383 389 473 1220 1320 384 389 477 1317 1319 386 388 475 1225 1325 384 388 476 1315 1320 385 390 478 1221 1321 386 390 475 1318 1324 385 390 476 1226 1322 386 390 566 1422 1424 386 390 569 1321 1414 385 388 566 1323 1419 384 389 569 1414 1422 385 389 474 1325 1418 386 388 567 1322 1418 386 387 565 1323 1421 385 389 569 1413 1418 386 389 477 1610 1511 386 388 568 1607 1513 387 390 569 1708 1514 387 389 566 1609 1505 386 392 478 1706 1613 387 228 477 1802 1610 387 228 566 1614 1515 228 228 477 1613 1519 228 228 472 1519 1698 228 228 568 1614 1702 228 228 568 1710 1707 228 228 566 1807 1526 228 228 567 1898 1331 228 228 565 1710 1334 228 228 564 1524 1333 228 228 566 1529 1430 228 228 565 1529 1337 228 228 567 1529 1332 228 228 563 1530 1328 228 228 477 1631 1338 228 228 566 1629 1523 228 228 564 1825 1615 228 228 565 1828 1621 228 228 566 1925 1617 228 228 567 1908 1614 228 228 476 1906 1616 228 228 565 1911 1623 228 228 563 1906 1727 228 228 567 1910 1727 228 228 566 2005 1623 228 228 568 2009 1719 228 228 567 1626 1726 228 228 475 1631 1729 228 228 565 1729 1823 228 228 566 1824 1824 228 228 568 1913 1828 228 228 567 1823 1826 228 228 567 1936 1819 228 228 478 1830 1825 228 228 479 2037 1816 228 228 568 2035 1824 228 228 567 1928 1928 228 228 479 1850 1927 228 228 568 2140 1929 228 228 478 1848 1922 228 228 567 1744 1827 228 228 570 1649 1731 228 228 569 1651 2035 228 228 570 1651 1930 228 228 670 1940 1846 228 228 666 1948 1845 228 228 667 1759 1940 228 228 668 1760 1947 228 228 667 1648 1954 228 228 666 1758 1847 228 228 667 1944 1844 228 228 667 1853 1856 228 228 668 1851 1859 228 228 670 1851 1856 228 228 669 1851 1748 228 228 668 1856 1652 228 228 669 1843 1565 228 228 670 1944 1844 228 228 668 1755 1758 228 228 670 1856 1849 228 228 672 1752 1847 228 228 670 1754 1851 228 228 670 1863 1854 228 228 671 1755 1852 228 228 673 1765 1850 228 228 670 1770 1950 228 228 671 1768 1551 228 228 672 1856 1361 228 228 671 1850 1457 228 228 674 1842 1460 228 228 670 1956 1762 228 228 670 1960 1665 228 228 671 1866 1772 228 228 483 2054 1463 228 228 672 2053 1666 228 228 671 2048 1462 228 228 483 1773 1566 228 228 672 1852 1458 228 228 672 2059 1568 228 228 671 2058 1572 228 228 482 2064 1771 228 228 674 1964 1673 228 228 671 1768 1567 228 228 482 1661 1676 228 228 672 1766 1763 228 228 673 1656 1472 228 228 482 1863 1764 228 228 671 1665 1676 228 228 674 1863 1667 228 228 483 1665 1576 228 228 674 1861 1771 228 228 670 1770 1378 228 228 572 1856 1870 228 228 575 1862 1874 228 228 574 1850 1874 228 228 484 1850 1773 228 228 577 1670 1964 228 228 576 1769 1571 228 228 573 1670 1976 228 228 574 1771 2081 228 228 574 1773 1665 228 228 576 1770 1580 228 228 485 1769 1983 228 228 577 1769 1871 228 228 576 1768 1572 228 228 573 1765 1982 228 228 577 1773 1664 228 228 575 1771 1982 228 228 576 1774 1563 228 228 578 1770 1983 228 228 577 1777 1581 228 228 574 1769 1880 228 228 578 1777 2082 228 228 573 1778 1577 228 228 575 1773 1878 228 228 576 1669 1578 228 228 576 1571 1577 228 228 482 1671 1682 228 228 576 1868 1582 228 228 483 1874 1784 228 228 580 1772 1783 228 228 575 1870 1676 228 228 580 1871 1668 228 228 578 1572 1677 228 228 486 1569 1572 228 228 576 1575 1368 228 228 487 1681 1579 228 228 579 1677 1474 228 228 581 1582 1474 228 228 580 1583 1474 228 228 578 1579 1580 228 228 578 1579 1372 228 228 579 1582 1583 228 228 581 1479 1581 228 228 581 1380 1581 228 228 578 1480 1581 228 228 581 1783 1581 228 228 580 1590 1580 228 228 578 1478 1272 228 228 580 1685 1477 228 228 582 1582 1585 228 228 579 1692 1384 228 228 579 1474 1486 228 228 581 1783 1583 228 228 580 1574 1582 228 228 488 1578 1383 228 228 582 1679 1583 228 228 581 1473 1677 228 228 486 1783 1576 228 228 582 1581 1595 228 228 486 1780 1385 228 228 584 1779 1476 228 228 581 1679 1477 228 228 488 1577 1476 228 228 582 1583 1475 228 228 579 1583 1483 228 228 488 1581 1679 228 228 580 1572 1482 228 228 583 1579 1481 228 228 489 1584 1579 228 228 582 1573 1480 228 228 580 1573 1580 228 228 488 1681 1377 228 228 583 1581 1485 228 228 580 1692 1581 228 228 489 1683 1276 228 228 581 1678 1578 228 228 484 1682 1477 228 228 579 1582 1482 228 228 581 1685 1577 228 228 488 1680 1381 228 228 583 1578 1679 228 228 490 1586 1482 228 228 584 1686 1575 228 228 490 1890 1379 228 228 584 1902 1486 228 228 489 1792 1583

Tree=0
num_leaves=2
num_cat=1
split_feature=0
split_gain=1.21551
threshold=0
decision_type=1
left_child=-1
right_child=-2
leaf_value=-9.475175429516721 -9.4979708065128676
leaf_weight=0.41729791600664612 3.3324178711191057
leaf_count=4407 35193
internal_value=-9.48797
internal_weight=3.74972
internal_count=39600
cat_boundaries=0 1
cat_threshold=8
is_linear=0
shrinkage=1


Tree=1
num_leaves=2
num_cat=1
split_feature=0
split_gain=0.432677
threshold=0
decision_type=1
left_child=-1
right_child=-2
leaf_value=-9.8860602752987887 -9.8999542076164229
leaf_weight=0.55363362851494458 1.9462399962503698
leaf_count=8770 30830
internal_value=-9.89344
internal_weight=2.49987
internal_count=39600
cat_boundaries=0 1
cat_threshold=520
is_linear=0
shrinkage=1


Tree=2
num_leaves=3
num_cat=2
split_feature=0 2
split_gain=169.421 84.2074
threshold=0 1
decision_type=1 9
left_child=1 -1
right_child=-2 -3
leaf_value=-6.003611912661456 -6.215470651075246 -6.2016970665201399
leaf_weight=10.804789776913822 79.520979696884751 11.961984570138156
leaf_count=4183 30786 4631
internal_value=-6.17987 -6.08259
internal_weight=102.288 22.7668
internal_count=39600 8814
cat_boundaries=0 1 2
cat_threshold=136 1
is_linear=0
shrinkage=1


Tree=3
num_leaves=12
num_cat=11
split_feature=0 1 2 0 1 0 1 0 2 0 2
split_gain=12174.1 5326.2 3122.48 428.224 1989.55 294.416 1012.2 229.613 392.458 221.897 18.2296
threshold=0 1 2 3 4 5 6 7 8 9 10
decision_type=1 9 9 1 9 1 9 1 9 1 9
left_child=1 7 3 4 -2 -3 9 8 -1 -7 -11
right_child=2 5 -4 -5 -6 6 -8 -9 -10 10 -12
leaf_value=-0.6013577494880783 -0.56396625866871342 -0.53967047718474859 -0.54126794004166845 -0.69408602847241108 -0.68356332917109786 -0.53935082713441418 -0.69360231932323768 -0.69545214252463228 -0.69523247046365821 -0.54595071391934269 -0.57517911757278151
leaf_weight=240.47080725431442 412.05836391448975 3426.4762896895409 441.22514569759369 2520.7546298503876 2090.3894560933113 1125.0930930376053 134.04308223724365 565.02882581949234 198.27205914258957 89.362054824829102 1044.1087308526039
leaf_count=775 1328 11043 1422 8124 6737 3626 432 1821 639 288 3365
internal_value=-0.612312 -0.5678 -0.667869 -0.679109 -0.663756 -0.549442 -0.56368 -0.673799 -0.644683 -0.555645 -0.572315
internal_weight=12287.3 6822.85 5464.43 5023.2 2502.45 5819.08 2392.61 1003.77 438.743 2258.56 1133.47
internal_count=39600 21989 17611 16189 8065 18754 7711 3235 1414 7279 3653
cat_boundaries=0 1 2 3 4 5 6 7 8 9 10 11
cat_threshold=992 2 3 24 2 704 1 64 2 256 5
is_linear=0
shrinkage=1


Tree=4
num_leaves=12
num_cat=11
split_feature=0 1 2 0 1 0 1 0 2 0 2
split_gain=12194.2 5367.67 3108.83 450.72 1962.83 315.001 1012.87 229.436 392.531 222.365 18.5185
threshold=0 1 2 3 4 5 6 7 8 9 10
decision_type=1 9 9 1 9 1 9 1 9 1 9
left_child=2 7 3 -1 -5 6 9 8 -2 10 -3
right_child=1 5 -4 4 -6 -7 -8 -9 -10 -11 -12
leaf_value=-0.70371606016914978 -0.70258716482258099 -0.82271540702746548 -0.85665609237632334 -0.71510474769285415 -0.83394127595375989 -0.85899160088837145 -0.7042274265657622 -0.70235452546110377 -0.79652746933540564 -0.85857065172384883 -0.85199365038012653
leaf_weight=2518.8271597623825 198.12045237421989 1043.3103634417057 440.88776725530624 2088.7910604774952 411.74328756332397 3423.8562684953213 133.94058752059937 564.59678211808205 240.28693363070488 1124.2328017354012 89.29372501373291
leaf_count=8124 639 3365 1422 6737 1328 11043 432 1821 775 3626 288
internal_value=-0.785905 -0.830471 -0.730281 -0.719062 -0.734786 -0.848908 -0.834222 -0.72402 -0.753164 -0.842263 -0.825582
internal_weight=12277.9 6817.64 5460.25 5019.36 2500.53 5814.63 2390.78 1003 438.407 2256.84 1132.6
internal_count=39600 21989 17611 16189 8065 18754 7711 3235 1414 7279 3653
cat_boundaries=0 1 2 3 4 5 6 7 8 9 10 11
cat_threshold=3096 2 3 3072 1 288 1 64 1 32 10
is_linear=0
shrinkage=1


Tree=5
num_leaves=2
num_cat=1
split_feature=0
split_gain=1.20045
threshold=0
decision_type=1
left_child=-1
right_child=-2
leaf_value=0.012766372649602021 -0.0099016114382131318
leaf_weight=0.42328049524803646 3.2894210723898145
leaf_count=4407 35193
internal_value=0.000398847
internal_weight=3.7127
internal_count=39600
cat_boundaries=0 1
cat_threshold=8
is_linear=0
shrinkage=0.05


Tree=6
num_leaves=2
num_cat=1
split_feature=0
split_gain=0.428848
threshold=0
decision_type=1
left_child=-1
right_child=-2
leaf_value=0.0073673942482721079 -0.0064695903777384229
leaf_weight=0.55576058303995524 1.9293542797677221
leaf_count=8770 30830
internal_value=0.00023758
internal_weight=2.48511
internal_count=39600
cat_boundaries=0 1
cat_threshold=520
is_linear=0
shrinkage=0.05


Tree=7
num_leaves=3
num_cat=2
split_feature=0 2
split_gain=156.145 71.2254
threshold=0 1
decision_type=1 9
left_child=1 -1
right_child=-2 -3
leaf_value=0.15735345847502577 -0.035449584032275432 -0.021622828794442134
leaf_weight=12.795350866159424 76.559751758119091 11.714326246408746
leaf_count=4183 30786 4631
internal_value=0.000483776 0.0903341
internal_weight=101.069 24.5097
internal_count=39600 8814
cat_boundaries=0 1 2
cat_threshold=136 1
is_linear=0
shrinkage=0.05


Tree=8
num_leaves=12
num_cat=11
split_feature=0 1 2 0 1 0 1 0 0 2 2
split_gain=10346.2 4576.97 2643.22 355.157 1676.86 260.428 870.91 196.836 190.672 331.861 17.0801
threshold=0 1 2 3 4 5 6 7 8 9 10
decision_type=1 9 9 1 9 1 9 1 1 9 9
left_child=1 8 3 4 -2 -3 7 -7 9 -1 -9
right_child=2 5 -4 -5 -6 6 -8 10 -10 -11 -12
leaf_value=0.010141303574714735 0.04505922026427648 0.068068939950593307 0.066638217259087501 -0.07470107680171649 -0.065138651683647325 0.068414599914528751 -0.074719566575317517 0.062498033349832144 -0.076029651432323722 -0.076063714740577368 0.034472161481011641
leaf_weight=240.00411331653595 407.79518204927444 3367.2654067873955 433.84217029809952 2538.7318414449692 2104.9238190352917 1105.609078168869 134.99864816665649 87.99085807800293 569.06176933646202 199.68702390789986 1036.2264446914196
leaf_count=775 1328 11043 1422 8124 6737 3626 432 288 1821 639 3365
internal_value=3.0469e-05 0.041495 -0.0509079 -0.061115 -0.0471467 0.0587881 0.0453421 0.0529121 -0.0563827 -0.0298298 0.0371974
internal_weight=12226.1 6740.84 5485.29 5051.45 2512.72 5732.09 2364.83 2229.83 1008.75 439.691 1124.22
internal_count=39600 21989 17611 16189 8065 18754 7711 7279 3235 1414 3653
cat_boundaries=0 1 2 3 4 5 6 7 8 9 10 11
cat_threshold=992 2 3 24 2 704 1 256 64 2 5
is_linear=0
shrinkage=0.05


Tree=9
num_leaves=12
num_cat=11
split_feature=0 1 2 0 1 0 1 0 0 2 2
split_gain=10360.8 4617.65 2629.36 374.881 1651.38 279.939 871.599 197.526 190.469 331.612 17.3623
threshold=0 1 2 3 4 5 6 7 8 9 10
decision_type=1 9 9 1 9 1 9 1 1 9 9
left_child=2 8 3 -1 -5 6 7 10 9 -2 -3
right_child=1 5 -4 4 -6 -7 -8 -9 -10 -11 -12
leaf_value=0.075043776485984814 0.076390715679299975 -0.034167726101824579 -0.066387412043069569 0.064638558769500407 -0.044771854907174613 -0.068555761433160542 0.075040197712506404 -0.068164641818448876 0.076397763996262649 -0.0098203657649929103 -0.062261474945021392
leaf_weight=2538.6279745101929 199.68077757954597 1035.1332399249077 433.25600972771645 2104.6390254199505 407.32245403528214 3362.3601272106171 134.99254560470581 1104.1026768684387 569.04353222250938 239.80464935302734 87.87593936920166
leaf_count=8124 639 3365 1422 6737 1328 11043 432 3626 1821 775 288
internal_value=-3.46647e-05 -0.0415629 0.0509361 0.0611118 0.0467901 -0.0589524 -0.0450511 -0.0526331 0.0567506 0.0301778 -0.0368962
internal_weight=12216.8 6732.99 5483.85 5050.59 2511.96 5724.46 2362.1 2227.11 1008.53 439.485 1123.01
internal_count=39600 21989 17611 16189 8065 18754 7711 7279 3235 1414 3653
cat_boundaries=0 1 2 3 4 5 6 7 8 9 10 11
cat_threshold=3096 2 3 3072 1 288 1 32 64 1 10
is_linear=0
shrinkage=0.05


Tree=10
num_leaves=2
num_cat=1
split_feature=0
split_gain=1.18176
threshold=0
decision_type=1
left_child=-1
right_child=-2
leaf_value=0.012744737092046316 -0.0097737756877083123
leaf_weight=0.4275554827763699 3.2332271654886431
leaf_count=4407 35193
internal_value=0.000971885
internal_weight=3.66078
internal_count=39600
cat_boundaries=0 1
cat_threshold=8
is_linear=0
shrinkage=0.05


Tree=11
num_leaves=2
num_cat=1
split_feature=0
split_gain=0.423796
threshold=0
decision_type=1
left_child=-1
right_child=-2
leaf_value=0.0073681117525953299 -0.0063991569481254345
leaf_weight=0.55560065413010307 1.9043511759336982
leaf_count=8770 30830
internal_value=0.000649213
internal_weight=2.45995
internal_count=39600
cat_boundaries=0 1
cat_threshold=520
is_linear=0
shrinkage=0.05


Tree=12
num_leaves=3
num_cat=2
split_feature=0 2
split_gain=144.05 60.4805
threshold=0 1
decision_type=1 9
left_child=1 -1
right_child=-2 -3
leaf_value=0.14137000359264479 -0.035271404392257066 -0.021374086316467096
leaf_weight=14.801864055916667 73.402679228689522 11.426819141255692
leaf_count=4183 30786 4631
internal_value=0.00106925 0.0841394
internal_weight=99.6314 26.2287
internal_count=39600 8814
cat_boundaries=0 1 2
cat_threshold=136 1
is_linear=0
shrinkage=0.05


Tree=13
num_leaves=12
num_cat=11
split_feature=0 1 2 0 1 0 1 0 0 2 2
split_gain=8879.68 3966.4 2262.3 303.324 1427.66 235.394 754.884 179.48 162.666 285.049 16.3603
threshold=0 1 2 3 4 5 6 7 8 9 10
decision_type=1 9 9 1 9 1 9 1 1 9 9
left_child=1 8 3 4 -2 -3 7 -7 9 -1 -9
right_child=2 5 -4 -5 -6 6 -8 10 -10 -11 -12
leaf_value=0.0093893197721563199 0.0421418983307629 0.064333566653750035 0.063008558525492184 -0.069117156045721967 -0.060134803867765298 0.064703038763245763 -0.069496658071602727 0.059246893946064132 -0.070441090838171433 -0.070655366100628905 0.032063728008752727
leaf_weight=239.52323794364929 402.20844042301178 3281.9493869543076 423.24630537629128 2525.6424286365509 2099.821694791317 1077.4929732084274 134.31239318847656 86.042716026306152 565.86933931708336 198.58428034186363 1026.4840757846832
leaf_count=775 1328 11043 1422 8124 6737 3626 432 288 1821 639 3365
internal_value=5.1508e-05 0.0389837 -0.047146 -0.0565259 -0.0435912 0.0553821 0.0425212 0.0496759 -0.0522296 -0.0276602 0.0346751
internal_weight=12061.2 6610.26 5450.92 5027.67 2502.03 5606.28 2324.33 2190.02 1003.98 438.108 1112.53
internal_count=39600 21989 17611 16189 8065 18754 7711 7279 3235 1414 3653
cat_boundaries=0 1 2 3 4 5 6 7 8 9 10 11
cat_threshold=992 2 3 24 2 704 1 256 64 2 5
is_linear=0
shrinkage=0.05


Tree=14
num_leaves=12
num_cat=11
split_feature=0 1 2 0 1 0 1 0 0 2 2
split_gain=8889.98 4006.29 2248.59 321.111 1403.43 254.154 755.576 180.304 162.481 284.617 16.6331
threshold=0 1 2 3 4 5 6 7 8 9 10
decision_type=1 9 9 1 9 1 9 1 1 9 9
left_child=2 8 3 -1 -5 6 7 10 9 -2 -3
right_child=1 5 -4 4 -6 -7 -8 -9 -10 -11 -12
leaf_value=0.069406487881240292 0.07092975818884184 -0.031774483964268074 -0.06279106591409693 0.059591468354870718 -0.041872272021818049 -0.064862244618382262 0.069767067697778032 -0.06448894569661516 0.070778858734713054 -0.0090789479573851594 -0.059039335425989492
leaf_weight=2527.09898686409 198.70288440585136 1025.1449726521969 422.45422232151031 2100.6850796043873 401.60217773914337 3274.850647598505 134.38931894302368 1075.4581427574158 566.27349519729614 239.31104764342308 85.889259338378906
leaf_count=8124 639 3365 1422 6737 1328 11043 432 3626 1821 775 288
internal_value=-6.08152e-05 -0.039064 0.0471418 0.0564821 0.0432053 -0.0555755 -0.0422496 -0.0494208 0.0525766 0.0279897 -0.0343901
internal_weight=12051.9 6600.02 5451.84 5029.39 2502.29 5595.73 2320.88 2186.49 1004.29 438.014 1111.03
internal_count=39600 21989 17611 16189 8065 18754 7711 7279 3235 1414 3653
cat_boundaries=0 1 2 3 4 5 6 7 8 9 10 11
cat_threshold=3096 2 3 3072 1 288 1 32 64 1 10
is_linear=0
shrinkage=0.05


Tree=15
num_leaves=2
num_cat=1
split_feature=0
split_gain=1.15975
threshold=0
decision_type=1
left_child=-1
right_child=-2
leaf_value=0.012729970095172048 -0.0096229284996993385
leaf_weight=0.43047534195648041 3.1675258589966693
leaf_count=4407 35193
internal_value=0.0016869
internal_weight=3.598
internal_count=39600
cat_boundaries=0 1
cat_threshold=8
is_linear=0
shrinkage=0.05


Tree=16
num_leaves=2
num_cat=1
split_feature=0
split_gain=0.41751
threshold=0
decision_type=1
left_child=-1
right_child=-2
leaf_value=0.0073769355950639368 -0.0063113968648645137
leaf_weight=0.55363494215998799 1.8733434537243741
leaf_count=8770 30830
internal_value=0.00120154
internal_weight=2.42698
internal_count=39600
cat_boundaries=0 1
cat_threshold=520
is_linear=0
shrinkage=0.05


Tree=17
num_leaves=3
num_cat=2
split_feature=0 2
split_gain=133.086 51.6577
threshold=0 1
decision_type=1 9
left_child=1 -1
right_child=-2 -3
leaf_value=0.1278881498090505 -0.035073378661774866 -0.021095222653297822
leaf_weight=16.790628524497151 70.1492712830659 11.113348411396148
leaf_count=4183 30786 4631
internal_value=0.00173077 0.0786412
internal_weight=98.0532 27.904
internal_count=39600 8814
cat_boundaries=0 1 2
cat_threshold=136 1
is_linear=0
shrinkage=0.05


Tree=18
num_leaves=11
num_cat=10
split_feature=0 1 2 0 1 0 0 2 0 2
split_gain=7679.92 3460.45 1952.96 264.953 1224.97 216.465 141.706 247.873 35.4982 15.9058
threshold=0 1 2 3 4 5 6 7 8 9
decision_type=1 9 9 1 9 1 1 9 1 9
left_child=1 6 3 4 -2 -3 7 -1 -7 -10
right_child=2 5 -4 -5 -6 8 -8 -9 9 -11
leaf_value=0.0086936072252497554 0.039520303837782954 0.061227954103128139 0.0599668211420466 -0.064584658395223121 -0.055935666187011061 0.046905410880979582 -0.065928042952715038 -0.066281147405695864 0.056470389716261796 0.029866974590400282
leaf_weight=239.03654217720032 395.65235900878906 3177.5083998739719 410.27996295690536 2488.9021031856537 2079.6695699393749 1175.3828677535057 557.16323488950729 195.54334679245949 83.659953117370605 1015.4056122899055
leaf_count=775 1328 11043 1422 8124 6737 4058 1821 639 288 3365
internal_value=6.65279e-05 0.0368517 -0.0440233 -0.052721 -0.0405805 0.0524867 -0.0487656 -0.025774 0.0400603 0.0323829
internal_weight=11818.2 6443.7 5374.5 4964.22 2475.32 5451.96 991.743 434.58 2274.45 1099.07
internal_count=39600 21989 17611 16189 8065 18754 3235 1414 7711 3653
cat_boundaries=0 1 2 3 4 5 6 7 8 9 10
cat_threshold=992 2 3 24 2 704 64 2 256 5
is_linear=0
shrinkage=0.05


Tree=19
num_leaves=12
num_cat=11
split_feature=0 1 2 0 1 0 1 0 0 2 2
split_gain=7686.76 3499.55 1939.59 281.338 1201.95 234.72 658.818 168.06 141.563 247.343 16.1678
threshold=0 1 2 3 4 5 6 7 8 9 10
decision_type=1 9 9 1 9 1 9 1 1 9 9
left_child=2 8 3 -1 -5 6 7 10 9 -2 -3
right_child=1 5 -4 4 -6 -7 -8 -9 -10 -11 -12
leaf_value=0.064833515799934668 0.066515196016054753 -0.029590446581503976 -0.0597759523149477 0.055352775838902094 -0.039264785448894828 -0.06179951865863851 0.065477085674284202 -0.061435628440582604 0.066243671934530166 -0.0083932676262576406 -0.056286292014250221
leaf_weight=2491.6694669723511 195.7671100795269 1013.8634324073792 409.32074725627899 2081.5236402750015 394.93406295776367 3168.3094424009323 132.50078201293945 1040.5715528130531 557.99413925409317 238.8141430914402 83.475228309631348
leaf_count=8124 639 3365 1422 6737 1328 11043 432 3626 1821 775 288
internal_value=-8.17122e-05 -0.0369434 0.0439909 0.0526431 0.0401664 -0.0527074 -0.0398042 -0.0466037 0.0490978 0.0260881 -0.0321112
internal_weight=11808.7 6431.3 5377.45 4968.13 2476.46 5438.72 2270.41 2137.91 992.575 434.581 1097.34
internal_count=39600 21989 17611 16189 8065 18754 7711 7279 3235 1414 3653
cat_boundaries=0 1 2 3 4 5 6 7 8 9 10 11
cat_threshold=3096 2 3 3072 1 288 1 32 64 1 10
is_linear=0
shrinkage=0.05


Tree=20
num_leaves=2
num_cat=1
split_feature=0
split_gain=1.135
threshold=0
decision_type=1
left_child=-1
right_child=-2
leaf_value=0.012720664017138165 -0.0094580132820344422
leaf_weight=0.43231633852701634 3.0964394846523651
leaf_count=4407 35193
internal_value=0.00250505
internal_weight=3.52876
internal_count=39600
cat_boundaries=0 1
cat_threshold=8
is_linear=0
shrinkage=0.05


Tree=21
num_leaves=2
num_cat=1
split_feature=0
split_gain=0.410125
threshold=0
decision_type=1
left_child=-1
right_child=-2
leaf_value=0.0073921770092422057 -0.0062131959455117144
leaf_weight=0.5502410783956293 1.8388376913244431
leaf_count=8770 30830
internal_value=0.00185521
internal_weight=2.38908
internal_count=39600
cat_boundaries=0 1
cat_threshold=520
is_linear=0
shrinkage=0.05


Tree=22
num_leaves=3
num_cat=2
split_feature=0 2
split_gain=123.195 44.4179
threshold=0 1
decision_type=1 9
left_child=1 -1
right_child=-2 -3
leaf_value=0.11650264409938692 -0.034859423587838771 -0.020793444176256143
leaf_weight=18.736220595426857 66.903706996003166 10.784212229307743
leaf_count=4183 30786 4631
internal_value=0.00243561 0.0737763
internal_weight=96.4241 29.5204
internal_count=39600 8814
cat_boundaries=0 1 2
cat_threshold=136 1
is_linear=0
shrinkage=0.05


Tree=23
num_leaves=12
num_cat=11
split_feature=0 1 2 0 1 0 1 0 0 2 2
split_gain=6679.53 3031.73 1697.44 235.562 1057.44 205.029 623.347 162.112 125.509 217.69 15.6121
threshold=0 1 2 3 4 5 6 7 8 9 10
decision_type=1 9 9 1 9 1 9 1 1 9 9
left_child=1 8 3 4 -2 -3 7 -7 9 -1 -9
right_child=2 5 -4 -5 -6 6 -8 10 -10 -11 -12
leaf_value=0.0080497107752091207 0.037139372411389197 0.058607674864962184 0.057380427393409865 -0.060821500141315016 -0.0523378856056557 0.059320162294889844 -0.064726137714058524 0.054068401375376385 -0.062202993152373265 -0.062671051233132352 0.027850433267684868
leaf_weight=238.55072408914566 388.41371715068817 3059.5126340985298 395.62023264169693 2434.3874577283859 2048.1333250701427 1008.9971005916595 132.00530290603638 80.959376335144043 544.30491623282433 191.0304888188839 1003.4147575497627
leaf_count=775 1328 11043 1422 8124 6737 3626 432 288 1821 639 3365
internal_value=7.80081e-05 0.0349697 -0.0413751 -0.0494972 -0.0379807 0.0499151 0.0377555 0.0444948 -0.0458157 -0.0241094 0.030284
internal_weight=11525.3 6258.78 5266.55 4870.93 2436.55 5284.89 2225.38 2093.37 973.886 429.581 1084.37
internal_count=39600 21989 17611 16189 8065 18754 7711 7279 3235 1414 3653
cat_boundaries=0 1 2 3 4 5 6 7 8 9 10 11
cat_threshold=992 2 3 24 2 704 1 256 64 2 5
is_linear=0
shrinkage=0.05


Tree=24
num_leaves=12
num_cat=11
split_feature=0 1 2 0 1 0 1 0 0 2 2
split_gain=6683.51 3070 1684.53 250.903 1035.58 223.095 623.844 163.037 125.416 217.115 15.8627
threshold=0 1 2 3 4 5 6 7 8 9 10
decision_type=1 9 9 1 9 1 9 1 1 9 9
left_child=2 8 3 -1 -5 6 7 10 9 -2 -3
right_child=1 5 -4 4 -6 -7 -8 -9 -10 -11 -12
leaf_value=0.061038954710467302 0.062873449319219454 -0.027584653713486514 -0.057211160618789447 0.051717645762518485 -0.03689509837054334 -0.059224003169790512 0.064934715805555376 -0.059154827313712015 0.062502280394657467 -0.0077589309037453371 -0.053903503822180759
leaf_weight=2438.236102938652 191.34111034870148 1001.7070074379444 394.52830767631531 2050.8324873149395 387.60239326953888 3048.3084756135941 132.14845561981201 1006.2367336750031 545.56323379278183 238.32028731703758 80.749846458435059
leaf_count=8124 639 3365 1422 6737 1328 11043 432 3626 1821 775 288
internal_value=-9.96206e-05 -0.035072 0.0413175 0.0493894 0.037539 -0.0501614 -0.0375124 -0.0442726 0.046138 0.0244104 -0.0300234
internal_weight=11515.6 6244.38 5271.2 4876.67 2438.43 5269.15 2220.84 2088.69 975.225 429.661 1082.46
internal_count=39600 21989 17611 16189 8065 18754 7711 7279 3235 1414 3653
cat_boundaries=0 1 2 3 4 5 6 7 8 9 10 11
cat_threshold=3096 2 3 3072 1 288 1 32 64 1 10
is_linear=0
shrinkage=0.05


Tree=25
num_leaves=2
num_cat=1
split_feature=0
split_gain=1.10671
threshold=0
decision_type=1
left_child=-1
right_child=-2
leaf_value=0.012715695035425599 -0.0092776576338325142
leaf_weight=0.43329947130405344 3.0195705431688116
leaf_count=4407 35193
internal_value=0.00343932
internal_weight=3.45287
internal_count=39600
cat_boundaries=0 1
cat_threshold=8
is_linear=0
shrinkage=0.05


Tree=26
num_leaves=2
num_cat=1
split_feature=0
split_gain=0.401132
threshold=0
decision_type=1
left_child=-1
right_child=-2
leaf_value=0.007412491760405808 -0.0061030279561735366
leaf_weight=0.5457209861233423 1.8003647615041702
leaf_count=8770 30830
internal_value=0.00262229
internal_weight=2.34609
internal_count=39600
cat_boundaries=0 1
cat_threshold=520
is_linear=0
shrinkage=0.05


Tree=27
num_leaves=3
num_cat=2
split_feature=0 2
split_gain=114.232 38.4566
threshold=0 1
decision_type=1 9
left_child=1 -1
right_child=-2 -3
leaf_value=0.1068540959592341 -0.034626619354751961 -0.02047437445066394
leaf_weight=20.620325597934425 63.654165202518925 10.447119043441491
leaf_count=4183 30786 4631
internal_value=0.00319748 0.0694775
internal_weight=94.7216 31.0674
internal_count=39600 8814
cat_boundaries=0 1 2
cat_threshold=136 1
is_linear=0
shrinkage=0.05


Tree=28
num_leaves=11
num_cat=10
split_feature=0 1 2 0 1 0 0 2 0 2
split_gain=5840.63 2670.67 1483.47 212.404 917.179 193.717 112.651 192.738 34.8378 15.411
threshold=0 1 2 3 4 5 6 7 8 9
decision_type=1 9 9 1 9 1 1 9 1 9
left_child=1 6 3 4 -2 -3 7 -1 -7 -10
right_child=2 5 -4 -5 -6 8 -8 -9 9 -11
leaf_value=0.0074536071729958122 0.034957319975192171 0.056368999827848577 0.055153256443781551 -0.057637060520436517 -0.049200124538222409 0.042715066893284678 -0.059071791958727839 -0.059641157631732958 0.025989534843432218 0.051966328634380415
leaf_weight=238.07100355625153 380.72396546602249 2932.4072540104389 379.81086882948875 2366.7850942611694 2008.1546857059002 1096.2260453701019 528.38370564579964 185.42208579182625 990.85258021950722 78.036515235900879
leaf_count=775 1328 11043 1422 8124 6737 4058 1821 639 3365 288
internal_value=8.61761e-05 0.0333515 -0.039088 -0.0467145 -0.0356978 0.0477139 -0.0432586 -0.0226213 0.0357862 0.0283501
internal_weight=11184.9 6049.4 5135.47 4755.66 2388.88 5097.52 951.877 423.493 2165.12 1068.89
internal_count=39600 21989 17611 16189 8065 18754 3235 1414 7711 3653
cat_boundaries=0 1 2 3 4 5 6 7 8 9 10
cat_threshold=992 2 3 24 2 704 64 2 256 10
is_linear=0
shrinkage=0.05


Tree=29
num_leaves=12
num_cat=11
split_feature=0 1 2 0 1 0 1 0 0 2 2
split_gain=5842.26 2708.15 1471.08 226.95 896.417 211.637 547.637 155.839 112.615 192.15 15.6498
threshold=0 1 2 3 4 5 6 7 8 9 10
decision_type=1 9 9 1 9 1 9 1 1 9 9
left_child=2 8 3 -1 -5 6 7 10 9 -2 -3
right_child=1 5 -4 4 -6 -7 -8 -9 -10 -11 -12
leaf_value=0.057829722129658138 0.059818256109606449 -0.025732952250022458 -0.055001717904448327 0.048543794072640679 -0.034722002094194154 -0.057032592768862217 0.061463422471930963 -0.056920057230848323 0.059359067902263876 -0.0071719463837134735 -0.051817300454127857
leaf_weight=2371.5094660520554 185.80303564667702 989.01165187358856 378.61640283465385 2011.5670358240604 379.83624225854874 2919.2946317493916 129.15638494491577 964.24606758356094 530.06655016541481 237.83444613218307 77.807836532592773
leaf_count=8124 639 3365 1422 6737 1328 11043 432 3626 1821 775 288
internal_value=-0.000114972 -0.0334641 0.0390071 0.0465797 0.0352288 -0.0479857 -0.0355533 -0.0419936 0.0435746 0.0229112 -0.0280989
internal_weight=11174.7 6033.22 5141.53 4762.91 2391.4 5079.52 2160.22 2031.07 953.704 423.637 1066.82
internal_count=39600 21989 17611 16189 8065 18754 7711 7279 3235 1414 3653
cat_boundaries=0 1 2 3 4 5 6 7 8 9 10 11
cat_threshold=3096 2 3 3072 1 288 1 32 64 1 10
is_linear=0
shrinkage=0.05


Tree=30
num_leaves=2
num_cat=1
split_feature=0
split_gain=1.07594
threshold=0
decision_type=1
left_child=-1
right_child=-2
leaf_value=0.012714153868720365 -0.0090921507835099568
leaf_weight=0.43360446011502063 2.941441491922888
leaf_count=4407 35193
internal_value=0.0044411
internal_weight=3.37505
internal_count=39600
cat_boundaries=0 1
cat_threshold=8
is_linear=0
shrinkage=0.05


Tree=31
num_leaves=2
num_cat=1
split_feature=0
split_gain=0.390932
threshold=0
decision_type=1
left_child=-1
right_child=-2
leaf_value=0.007436792512307471 -0.0059890802614242337
leaf_weight=0.5403191608384077 1.7608339310572776
leaf_count=8770 30830
internal_value=0.00345461
internal_weight=2.30115
internal_count=39600
cat_boundaries=0 1
cat_threshold=520
is_linear=0
shrinkage=0.05


Tree=32
num_leaves=3
num_cat=2
split_feature=0 2
split_gain=106.149 33.5199
threshold=0 1
decision_type=1 9
left_child=1 -1
right_child=-2 -3
leaf_value=0.098638896959040864 -0.0343809665752145 -0.020142527040090029
leaf_weight=22.430409085936844 60.506662411382422 10.107853231718762
leaf_count=4183 30786 4631
internal_value=0.00397431 0.0656791
internal_weight=93.0449 32.5383
internal_count=39600 8814
cat_boundaries=0 1 2
cat_threshold=136 1
is_linear=0
shrinkage=0.05


Tree=33
num_leaves=12
num_cat=11
split_feature=0 1 2 0 1 0 1 0 0 2 2
split_gain=5123.97 2357.51 1302.27 193.711 798.534 187.95 520.003 152.468 102.207 171.797 15.2573
threshold=0 1 2 3 4 5 6 7 8 9 10
decision_type=1 9 9 1 9 1 9 1 1 9 9
left_child=1 8 3 4 -2 -3 7 -7 9 -1 -9
right_child=2 5 -4 -5 -6 6 -8 10 -10 -11 -12
leaf_value=0.0069016460751392759 0.032942016011100285 0.054435391551749715 0.05321380591414071 -0.054897545918761059 -0.046421093041562778 0.055359720507255621 -0.060821767955406073 0.024264875709292099 -0.056398305243220571 -0.057061636143545084 0.05010746655451568
leaf_weight=237.6014918088913 372.76906010508537 2799.7312491238117 363.28726306557655 2289.8439069986343 1962.0976934731007 929.19619411230087 128.44736766815186 977.99205556511879 510.27290222048759 179.02230343222618 74.969098091125488
leaf_count=775 1328 11043 1422 8124 6737 3626 432 3365 1821 639 288
internal_value=9.27339e-05 0.0318669 -0.0370807 -0.0442732 -0.0336641 0.0456784 0.0338602 0.0402703 -0.0410073 -0.0212765 0.0265589
internal_weight=10825.2 5837.23 4988 4624.71 2334.87 4910.34 2110.6 1982.16 926.897 416.624 1052.96
internal_count=39600 21989 17611 16189 8065 18754 7711 7279 3235 1414 3653
cat_boundaries=0 1 2 3 4 5 6 7 8 9 10 11
cat_threshold=992 2 3 24 2 704 1 256 64 2 10
is_linear=0
shrinkage=0.05


Tree=34
num_leaves=12
num_cat=11
split_feature=0 1 2 0 1 0 1 0 0 2 2
split_gain=5123.6 2394.16 1290.42 207.641 778.803 205.994 520.312 153.418 102.23 171.218 15.4842
threshold=0 1 2 3 4 5 6 7 8 9 10
decision_type=1 9 9 1 9 1 9 1 1 9 9
left_child=2 8 3 -1 -5 6 7 10 9 -2 -3
right_child=1 5 -4 4 -6 -7 -8 -9 -10 -11 -12
leaf_value=0.055070404940415721 0.057218205652550563 -0.024016238332008069 -0.053076945743621907 0.045729316018915445 -0.03271381182005003 -0.055149248817074163 0.060986012952131033 -0.05522807875017436 0.056676961778212388 -0.006628698741964912 -0.049971637805814893
leaf_weight=2295.2616934776306 179.45889893174171 976.04592844843864 362.01640105247498 1966.1054221391678 371.81940686702728 2784.8078832924366 128.63392066955566 926.00108885765076 512.37424269318581 237.36040741205215 74.726197242736816
leaf_count=8124 639 3365 1422 6737 1328 11043 432 3626 1821 775 288
internal_value=-0.00012914 -0.0319892 0.0369778 0.0441134 0.0331677 -0.0459746 -0.033636 -0.0400693 0.0413199 0.0215567 -0.0263158
internal_weight=10814.6 5819.41 4995.2 4633.19 2337.92 4890.22 2105.41 1976.77 929.194 416.819 1050.77
internal_count=39600 21989 17611 16189 8065 18754 7711 7279 3235 1414 3653
cat_boundaries=0 1 2 3 4 5 6 7 8 9 10 11
cat_threshold=3096 2 3 3072 1 288 1 32 64 1 10
is_linear=0
shrinkage=0.05


Tree=35
num_leaves=2
num_cat=1
split_feature=0
split_gain=1.04141
threshold=0
decision_type=1
left_child=-1
right_child=-2
leaf_value=0.012715292341939764 -0.0088964932709950217
leaf_weight=0.43337920023623155 2.8600467264550393
leaf_count=4407 35193
internal_value=0.0055426
internal_weight=3.29343
internal_count=39600
cat_boundaries=0 1
cat_threshold=8
is_linear=0
shrinkage=0.05


Tree=36
num_leaves=2
num_cat=1
split_feature=0
split_gain=0.378799
threshold=0
decision_type=1
left_child=-1
right_child=-2
leaf_value=0.0074641897163368236 -0.0058669949567972399
leaf_weight=0.53423560631563305 1.7187727511336564
leaf_count=8770 30830
internal_value=0.00438327
internal_weight=2.25301
internal_count=39600
cat_boundaries=0 1
cat_threshold=520
is_linear=0
shrinkage=0.05


Tree=37
num_leaves=3
num_cat=2
split_feature=0 2
split_gain=98.7897 29.4038
threshold=0 1
decision_type=1 9
left_child=1 -1
right_child=-2 -3
leaf_value=0.091606862652669263 -0.034117135441727495 -0.019801597446350259
leaf_weight=24.158485711086541 57.409296655212529 9.7707511072512698
leaf_count=4183 30786 4631
internal_value=0.00479367 0.0623198
internal_weight=91.3385 33.9292
internal_count=39600 8814
cat_boundaries=0 1 2
cat_threshold=136 1
is_linear=0
shrinkage=0.05


Tree=38
num_leaves=11
num_cat=10
split_feature=0 1 2 0 0 1 0 2 0 2
split_gain=4512.54 2090.38 1147.4 180.539 178.299 697.316 93.5503 153.997 35.3368 15.1205
threshold=0 1 2 3 4 5 6 7 8 9
decision_type=1 9 9 1 1 9 1 9 1 9
left_child=1 6 4 -3 5 -2 7 -1 -5 -10
right_child=2 3 -4 8 -6 -7 -8 -9 9 -11
leaf_value=0.0063904942569179019 0.031068507883190995 0.052749050894282036 0.051507689909485857 0.039428237387423119 -0.05250610181389051 -0.043926378695101111 -0.054084071310463756 -0.054838098046918415 0.02266095007939968 0.048447868347803125
leaf_weight=237.14523762464523 364.69735831022263 2664.2895611971617 346.39644920825958 1009.097558259964 2206.5615102052689 1911.8602414131165 490.672139108181 172.07657673954964 965.04979878664017 71.820051670074463
leaf_count=775 1328 11043 1422 4058 8124 6737 1821 639 3365 288
internal_value=9.7547e-05 0.0305727 -0.0352938 0.0439186 -0.0421004 -0.0318291 -0.0389977 -0.0200499 0.0322188 0.0248928
internal_weight=10439.7 5610.15 4829.52 4710.26 4483.12 2276.56 899.894 409.222 2045.97 1036.87
internal_count=39600 21989 17611 18754 16189 8065 3235 1414 7711 3653
cat_boundaries=0 1 2 3 4 5 6 7 8 9 10
cat_threshold=992 2 3 704 24 2 64 2 256 10
is_linear=0
shrinkage=0.05


Tree=39
num_leaves=12
num_cat=11
split_feature=0 1 2 0 1 0 1 0 0 2 2
split_gain=4510.53 2126.25 1136.08 198.667 458.971 191.743 678.556 148.717 93.6352 153.44 15.3356
threshold=0 1 2 3 4 5 6 7 8 9 10
decision_type=1 9 9 1 9 1 9 1 1 9 9
left_child=2 8 5 4 7 -1 -7 10 9 -2 -3
right_child=1 3 -4 -5 -6 6 -8 -9 -10 -11 -12
leaf_value=0.052662996431485247 0.054977811362170094 -0.02241926177221901 -0.051383085155092469 -0.05351660079309753 0.058123515028097865 0.043199396668391336 -0.030845921925938647 -0.053529498552152388 0.054356889867510742 -0.0061258841117073316 -0.04832308643155396
leaf_weight=2212.5143687725067 172.55594435334206 963.02234068512917 345.07151019573212 2647.6535932272673 124.84210538864136 1916.3592483699322 363.69830384850502 881.15025946497917 493.18339329957962 236.90105825662613 71.567142963409424
leaf_count=8124 639 3365 1422 11043 432 6737 1328 3626 1821 775 288
internal_value=-0.000142333 -0.0307049 0.0351697 -0.04424 -0.0320013 0.0419171 0.0313051 -0.0381458 0.0393096 0.0203216 -0.0246566
internal_weight=10428.5 5590.88 4837.64 4688.24 2040.58 4492.57 2280.06 1915.74 902.64 409.457 1034.59
internal_count=39600 21989 17611 18754 7711 16189 8065 7279 3235 1414 3653
cat_boundaries=0 1 2 3 4 5 6 7 8 9 10 11
cat_threshold=3096 2 3 288 1 3072 1 32 64 1 10
is_linear=0
shrinkage=0.05


Tree=40
num_leaves=2
num_cat=1
split_feature=0
split_gain=1.00463
threshold=0
decision_type=1
left_child=-1
right_child=-2
leaf_value=0.012718489070197642 -0.0087015036123300887
leaf_weight=0.43274656776338816 2.7799417020360129
leaf_count=4407 35193
internal_value=0.00668725
internal_weight=3.21269
internal_count=39600
cat_boundaries=0 1
cat_threshold=8
is_linear=0
shrinkage=0.05


Tree=41
num_leaves=2
num_cat=1
split_feature=0
split_gain=0.365405
threshold=0
decision_type=1
left_child=-1
right_child=-2
leaf_value=0.0074939493520587708 -0.0057454669761773901
leaf_weight=0.52763533761026338 1.6772012094443201
leaf_count=8770 30830
internal_value=0.00535305
internal_weight=2.20484
internal_count=39600
cat_boundaries=0 1
cat_threshold=520
is_linear=0
shrinkage=0.05


Tree=42
num_leaves=3
num_cat=2
split_feature=0 2
split_gain=92.1311 25.947
threshold=0 1
decision_type=1 9
left_child=1 -1
right_child=-2 -3
leaf_value=0.085554336746181819 -0.033842817363877599 -0.019454660456880574
leaf_weight=25.800067706499249 54.46176247112453 9.4390434050001186
leaf_count=4183 30786 4631
internal_value=0.00560868 0.059344
internal_weight=89.7009 35.2391
internal_count=39600 8814
cat_boundaries=0 1 2
cat_threshold=136 1
is_linear=0
shrinkage=0.05


Tree=43
num_leaves=12
num_cat=11
split_feature=0 1 2 0 1 0 1 0 0 2 2
split_gain=3981.21 1854.66 1013.99 177.656 436.907 165.348 610.362 146.525 86.2454 138.7 14.9804
threshold=0 1 2 3 4 5 6 7 8 9 10
decision_type=1 9 9 1 9 1 9 1 1 9 9
left_child=1 8 5 -3 7 6 -2 -5 9 -1 -9
right_child=2 3 -4 4 -6 -7 -8 10 -10 -11 -12
leaf_value=0.0059170947475377829 0.029317239795920682 0.051265446247459628 0.04999275320809695 0.052340376096435985 -0.057572559683238156 -0.050390760443689689 -0.041660222224428806 0.021165211876407929 -0.052055980704933807 -0.052900187938324496 0.046952985998309278
leaf_weight=236.70457378029823 356.62626773118973 2528.290692910552 329.41304442286491 845.43968746066093 123.97064924240112 2119.3295066356659 1858.9614151120186 952.19619378447533 470.14056459069252 164.78233158588409 68.63992166519165
leaf_count=775 1328 11043 1422 3626 432 8124 6737 3365 1821 639 288
internal_value=0.000101589 0.0293444 -0.0336825 0.0422311 0.0305555 -0.0401415 -0.0301551 0.0366852 -0.0371817 -0.0189222 0.0233378
internal_weight=10054.5 5390.16 4664.33 4518.54 1990.25 4334.92 2215.59 1866.28 871.627 401.487 1020.84
internal_count=39600 21989 17611 18754 7711 16189 8065 7279 3235 1414 3653
cat_boundaries=0 1 2 3 4 5 6 7 8 9 10 11
cat_threshold=992 2 3 704 1 24 2 256 64 2 10
is_linear=0
shrinkage=0.05


Tree=44
num_leaves=12
num_cat=11
split_feature=0 1 2 0 1 0 1 0 0 2 2
split_gain=3977.76 1889.68 1003.2 196.116 437.052 178.401 592.515 147.46 86.3941 138.173 15.1837
threshold=0 1 2 3 4 5 6 7 8 9 10
decision_type=1 9 9 1 9 1 9 1 1 9 9
left_child=2 8 5 4 7 -1 -7 10 9 -2 -3
right_child=1 3 -4 -5 -6 6 -8 -9 -10 -11 -12
leaf_value=0.050534695834586724 0.053025917982944419 -0.020929678124040604 -0.049878421116208146 -0.052090505381204612 0.057704253398249819 0.040898002611754788 -0.029099056354722666 -0.052232986638360103 0.052325351766865459 -0.0056604734609066515 -0.046837488988126563
leaf_weight=2125.6813691854477 165.29338788986206 950.10786280035973 328.05302439630032 2510.0394762307405 124.18341493606567 1863.8609340786934 355.58857801556587 842.02699691057205 473.05100056529045 236.45847737789154 68.380575656890869
leaf_count=8124 639 3365 1422 11043 432 6737 1328 3626 1821 775 288
internal_value=-0.000155118 -0.029486 0.0335377 -0.0425767 -0.0303439 0.0399356 0.0296032 -0.0364979 0.0374952 0.0191864 -0.0231076
internal_weight=10042.7 5369.54 4673.18 4494.74 1984.7 4345.13 2219.45 1860.52 874.803 401.752 1018.49
internal_count=39600 21989 17611 18754 7711 16189 8065 7279 3235 1414 3653
cat_boundaries=0 1 2 3 4 5 6 7 8 9 10 11
cat_threshold=3096 2 3 288 1 3072 1 32 64 1 10
is_linear=0
shrinkage=0.05


Tree=45
num_leaves=2
num_cat=1
split_feature=0
split_gain=0.96385
threshold=0
decision_type=1
left_child=-1
right_child=-2
leaf_value=0.012723225247851931 -0.0084996907456008838
leaf_weight=0.43180947917426238 2.6980773433388099
leaf_count=4407 35193
internal_value=0.0079225
internal_weight=3.12989
internal_count=39600
cat_boundaries=0 1
cat_threshold=8
is_linear=0
shrinkage=0.05


Tree=46
num_leaves=2
num_cat=1
split_feature=0
split_gain=0.349801
threshold=0
decision_type=1
left_child=-1
right_child=-2
leaf_value=0.0075254632817280398 -0.0056181955391765882
leaf_weight=0.52065515752110514 1.6339798714179781
leaf_count=8770 30830
internal_value=0.00640982
internal_weight=2.15464
internal_count=39600
cat_boundaries=0 1
cat_threshold=520
is_linear=0
shrinkage=0.05


Tree=47
num_leaves=3
num_cat=2
split_feature=0 2
split_gain=86.0255 23.0225
threshold=0 1
decision_type=1 9
left_child=1 -1
right_child=-2 -3
leaf_value=0.080316241159411259 -0.033550548947028767 -0.019104308029450564
leaf_weight=27.353321885690093 51.589688443345949 9.1151065727462974
leaf_count=4183 30786 4631
internal_value=0.0064563 0.056703
internal_weight=88.0581 36.4684
internal_count=39600 8814
cat_boundaries=0 1 2
cat_threshold=136 1
is_linear=0
shrinkage=0.05


Tree=48
num_leaves=11
num_cat=10
split_feature=0 1 2 0 0 1 0 2 0 2
split_gain=3522.51 1651.87 898.31 173.769 154.27 535.229 79.9797 125.431 29.4882 14.8237
threshold=0 1 2 3 4 5 6 7 8 9
decision_type=1 9 9 1 1 9 1 9 1 9
left_child=1 6 4 9 5 -2 7 -1 -5 -3
right_child=2 3 -4 8 -6 -7 -8 -9 -10 -11
leaf_value=0.0054786486863702168 0.027672781769006428 0.019767409940418351 0.048635751815918525 0.036752526248614005 -0.048496807912810441 -0.039580121584668226 -0.050258491136450562 -0.051194305815225175 0.049949664576196123 0.045595253296821854
leaf_weight=236.28109395503998 348.64782655239105 939.56331565976143 312.55248606204987 920.09192898869514 2030.0480074882507 1804.6125761568546 449.12296022474766 157.29767815768719 2393.4569263011217 65.468945503234863
leaf_count=775 1328 3365 1422 4058 8124 6737 1821 639 11043 288
internal_value=0.000104613 0.0282631 -0.0322127 0.0407631 -0.0383548 -0.0286132 -0.0355227 -0.0178785 0.0464067 0.0218825
internal_weight=9657.14 5161.28 4495.86 4318.58 4183.31 2153.26 842.702 393.579 3313.55 1005.03
internal_count=39600 21989 17611 18754 16189 8065 3235 1414 15101 3653
cat_boundaries=0 1 2 3 4 5 6 7 8 9 10
cat_threshold=992 2 3 32 24 2 64 2 256 10
is_linear=0
shrinkage=0.05


Tree=49
num_leaves=12
num_cat=11
split_feature=0 1 2 0 1 0 1 0 0 2 2
split_gain=3517.9 1686.13 888.048 191.051 386.898 167.005 518.244 143.953 80.1944 124.938 15.0153
threshold=0 1 2 3 4 5 6 7 8 9 10
decision_type=1 9 9 1 9 1 9 1 1 9 9
left_child=2 8 5 4 7 -1 -7 10 9 -2 -3
right_child=1 3 -4 -5 -6 6 -8 -9 -10 -11 -12
leaf_value=0.048630215495156164 0.051308352151766483 -0.019537397288496801 -0.04853005161610132 -0.050836412795253284 0.055304432478108671 0.038782460308192011 -0.027458011769422988 -0.050903326156734367 0.050526564855313365 -0.0052296900126624366 -0.045487576745066066
leaf_weight=2036.6826592683792 157.83091083168983 937.43146106600761 311.17333553731441 2373.6865929961205 119.83806896209717 1809.8334974944592 347.58064398169518 797.03654983639717 452.42022892832756 236.03414297103882 65.206170558929443
leaf_count=8124 639 3365 1422 11043 432 6737 1328 3626 1821 775 288
internal_value=-0.000167699 -0.0284146 0.0320475 -0.0411344 -0.0289356 0.038127 0.028033 -0.0348196 0.0358396 0.0181359 -0.0216576
internal_weight=9644.75 5139.48 4505.27 4293.2 1919.51 4194.1 2157.41 1799.67 846.285 393.865 1002.64
internal_count=39600 21989 17611 18754 7711 16189 8065 7279 3235 1414 3653
cat_boundaries=0 1 2 3 4 5 6 7 8 9 10 11
cat_threshold=3096 2 3 288 1 3072 1 32 64 1 10
is_linear=0
shrinkage=0.05


Tree=50
num_leaves=2
num_cat=1
split_feature=0
split_gain=0.92112
threshold=0
decision_type=1
left_child=-1
right_child=-2
leaf_value=0.012729063812551039 -0.0083024860283817409
leaf_weight=0.43065449951245682 2.6190887868724535
leaf_count=4407 35193
internal_value=0.00918197
internal_weight=3.04974
internal_count=39600
cat_boundaries=0 1
cat_threshold=8
is_linear=0
shrinkage=0.05


Tree=51
num_leaves=2
num_cat=1
split_feature=0
split_gain=0.332975
threshold=0
decision_type=1
left_child=-1
right_child=-2
leaf_value=0.0075582212457465173 -0.0054943980579316553
leaf_weight=0.51340904848984792 1.5922441060938584
leaf_count=8770 30830
internal_value=0.00748949
internal_weight=2.10565
internal_count=39600
cat_boundaries=0 1
cat_threshold=520
is_linear=0
shrinkage=0.05


Tree=52
num_leaves=4
num_cat=3
split_feature=0 2 1
split_gain=80.4782 20.5308 1.49078
threshold=0 1 2
decision_type=1 9 9
left_child=1 2 -1
right_child=-2 -3 -4
leaf_value=0.095036668356895643 -0.033249939226578221 -0.018752741526786437 -0.014330689719522697
leaf_weight=23.286310957279056 48.88859829318244 8.8006543071242032 5.532082743477079
leaf_count=3422 30786 4631 761
internal_value=0.00728523 0.0543537 0.0757588
internal_weight=86.5076 37.619 28.8184
internal_count=39600 8814 4183
cat_boundaries=0 1 2 3
cat_threshold=136 1 1
is_linear=0
shrinkage=0.05


Tree=53
num_leaves=13
num_cat=12
split_feature=0 1 2 0 0 1 0 2 1 0 2 0
split_gain=3118.92 1470.56 797.456 171.723 144.636 470.002 74.5244 113.824 37.796 448.101 14.6421 0.256004
threshold=0 1 2 3 4 5 6 7 8 9 10 11
decision_type=1 9 9 1 1 9 1 9 9 1 9 1
left_child=1 6 4 10 5 -2 7 -1 9 -5 -3 -6
right_child=2 3 -4 8 11 -7 -8 -9 -10 -11 -12 -13
leaf_value=0.0050725768598741594 0.026122898339715095 0.018459057224414595 0.047410075645169886 0.049348711073586515 -0.041756542172037066 -0.037653291126262235 -0.048648597891199324 -0.049678871649087242 0.048711985881781175 -0.056759192647692115 0.044352438472373731 -0.051276497252765701
leaf_weight=235.87590679526329 340.83297815918922 927.25195065140724 295.98158285021782 650.72172239422798 964.61547231674194 1749.7722861170769 427.97073113918304 149.74832381308079 2381.7308538407087 109.90949016809464 62.338786125183105 975.60143709182739
leaf_count=775 1328 3365 1422 3190 4039 6737 1821 639 11509 402 288 4085
internal_value=0.000107287 0.0272058 -0.0308579 0.0393087 -0.0367082 -0.0271809 -0.0339919 -0.0169072 0.0451426 0.0334788 0.0205176 -0.0467819
internal_weight=9272.35 4945.55 4326.8 4131.95 4030.82 2090.61 813.595 385.624 3142.36 760.631 989.591 1940.22
internal_count=39600 21989 17611 18754 16189 8065 3235 1414 15101 3592 3653 8124
cat_boundaries=0 1 2 3 4 5 6 7 8 9 10 11 12
cat_threshold=992 2 3 32 24 2 64 2 4 512 10 2048
is_linear=0
shrinkage=0.05


Tree=54
num_leaves=13
num_cat=12
split_feature=0 1 2 0 1 0 1 0 0 2 2 0
split_gain=3113.28 1503.97 787.697 190.092 368.977 157.106 453.831 143.104 74.8074 113.368 14.8223 0.100883
threshold=0 1 2 3 4 5 6 7 8 9 10 11
decision_type=1 9 9 1 9 1 9 1 1 9 9 1
left_child=2 8 5 4 7 11 -7 10 9 -2 -3 -1
right_child=1 3 -4 -5 -6 6 -8 -9 -10 -11 -12 -13
leaf_value=0.051385150822641536 0.049783113369606093 -0.018234050977287624 -0.047311638119833938 -0.049726864423251249 0.054934671392434235 0.036819890158593598 -0.025910728242124939 -0.04988367795289958 0.048917381690628758 -0.0048309669253911273 -0.044251354528545485 0.041898185690415868
leaf_weight=979.0304359793663 150.29567737877369 925.0913143157959 294.59657710790634 2239.9192809462547 119.07551908493042 1755.2466762959957 339.74417805671692 758.92389452457428 431.64128710329533 235.62895581126213 62.075084209442139 968.00585824251175
leaf_count=4085 639 3365 1422 11043 432 6737 1328 3626 1821 775 288 4039
internal_value=-0.000180231 -0.0273666 0.0306724 -0.0397045 -0.0274674 0.0364588 0.0265721 -0.0333677 0.0343143 0.0171583 -0.0202974 0.0469067
internal_weight=9259.27 4922.65 4336.62 4105.09 1865.17 4042.03 2094.99 1746.09 817.566 385.925 987.166 1947.04
internal_count=39600 21989 17611 18754 7711 16189 8065 7279 3235 1414 3653 8124
cat_boundaries=0 1 2 3 4 5 6 7 8 9 10 11 12
cat_threshold=3096 2 3 288 1 3072 1 32 64 1 10 1024
is_linear=0
shrinkage=0.05


Tree=55
num_leaves=2
num_cat=1
split_feature=0
split_gain=0.874344
threshold=0
decision_type=1
left_child=-1
right_child=-2
leaf_value=0.012735637721575495 -0.0081012302862182497
leaf_weight=0.42935448364005424 2.5394839905347912
leaf_count=4407 35193
internal_value=0.0105224
internal_weight=2.96884
internal_count=39600
cat_boundaries=0 1
cat_threshold=8
is_linear=0
shrinkage=0.05


Tree=56
num_leaves=2
num_cat=1
split_feature=0
split_gain=0.313827
threshold=0
decision_type=1
left_child=-1
right_child=-2
leaf_value=0.0075921489432696958 -0.0053670980475350599
leaf_weight=0.50591480669027078 1.5496384716425384
leaf_count=8770 30830
internal_value=0.00864703
internal_weight=2.05555
internal_count=39600
cat_boundaries=0 1
cat_threshold=520
is_linear=0
shrinkage=0.05


Tree=57
num_leaves=4
num_cat=3
split_feature=0 2 1
split_gain=75.4036 18.4036 1.10875
threshold=0 1 2
decision_type=1 9 9
left_child=1 2 -1
right_child=-2 -3 -4
leaf_value=0.088949193067912713 -0.032931940103632845 -0.018401863004204499 -0.013978181411407553
leaf_weight=24.852137104608119 46.275666056433693 8.4969065692275745 5.3253677170723703
leaf_count=3422 30786 4631 761
internal_value=0.00814837 0.0522959 0.0718275
internal_weight=84.9501 38.6744 30.1775
internal_count=39600 8814 4183
cat_boundaries=0 1 2 3
cat_threshold=136 1 1
is_linear=0
shrinkage=0.05


Tree=58
num_leaves=12
num_cat=11
split_feature=0 1 2 0 0 1 0 2 0 2 2
split_gain=2768.21 1313.71 709.21 171.708 136.278 413.15 69.7332 103.599 26.9335 14.431 1.11626
threshold=0 1 2 3 4 5 6 7 8 9 10
decision_type=1 9 9 1 1 9 1 9 1 9 9
left_child=1 6 4 9 5 -2 7 -1 -5 -3 -6
right_child=2 3 -4 8 10 -7 -8 -9 -10 -11 -12
leaf_value=0.0046964980153906821 0.024657810880557948 0.017233027118229934 0.046294137916740058 0.03446912549995116 -0.040144223529729857 -0.035854153819176462 -0.047196505216877876 -0.048321081091352733 0.047717433149490326 0.043206398607603003 -0.049807797526178393
leaf_weight=235.48965901136398 333.23558840155602 915.33731237053871 279.82745124399662 833.95198521018028 924.99624933302402 1695.1926341950893 407.02095147967339 142.23338140547276 2132.4649111777544 59.273999691009521 926.46372197568417
leaf_count=775 1328 3365 1422 4058 4039 6737 1821 639 11043 288 4085
internal_value=0.000106038 0.0262634 -0.0296028 0.0380313 -0.0351817 -0.0258409 -0.0325703 -0.0159989 0.0441212 0.0192355 -0.0452214
internal_weight=8885.49 4725.77 4159.72 3941.03 3879.89 2028.43 784.744 377.723 2966.42 974.611 1851.46
internal_count=39600 21989 17611 18754 16189 8065 3235 1414 15101 3653 8124
cat_boundaries=0 1 2 3 4 5 6 7 8 9 10 11
cat_threshold=992 2 3 32 24 2 64 2 256 10 2
is_linear=0
shrinkage=0.05


Tree=59
num_leaves=13
num_cat=12
split_feature=0 1 2 0 1 0 1 0 0 2 2 2
split_gain=2761.93 1345.36 699.938 186.548 329.632 148.529 397.752 140.26 69.9815 103.18 14.5999 0.960569
threshold=0 1 2 3 4 5 6 7 8 9 10 11
decision_type=1 9 9 1 9 1 9 1 1 9 9 9
left_child=2 8 5 4 7 11 -7 10 9 -2 -3 -1
right_child=1 3 -4 -5 -6 6 -8 -9 -10 -11 -12 -13
leaf_value=0.049907294593182917 0.048417049284798883 -0.017012622326685843 -0.046201793180114595 -0.048739192844495301 0.053045254644345279 0.034984726316691667 -0.024447590246861953 -0.048830067255116016 0.047450178162605577 -0.0044619449387415609 -0.043110874743466102 0.040280932760651138
leaf_weight=929.95794872939587 142.78811439871788 913.16022932529449 278.44752703607082 2109.6491177082062 114.70629858970642 1700.864638030529 332.13173913955688 716.03165698051453 410.79013404250145 235.24347022175789 59.011430740356445 928.42247396707535
leaf_count=4085 639 3365 1422 11043 432 6737 1328 3626 1821 775 288 4039
internal_value=-0.000189762 -0.0264376 0.029397 -0.0384513 -0.0262107 0.034911 0.0252031 -0.0318765 0.0328858 0.0162443 -0.0190196 0.0453394
internal_weight=8871.2 4701.38 4169.82 3912.56 1802.91 3891.38 2033 1688.2 788.822 378.032 972.172 1858.38
internal_count=39600 21989 17611 18754 7711 16189 8065 7279 3235 1414 3653 8124
cat_boundaries=0 1 2 3 4 5 6 7 8 9 10 11 12
cat_threshold=3096 2 3 288 1 3072 1 32 64 1 10 1
is_linear=0
shrinkage=0.05


Tree=60
num_leaves=2
num_cat=1
split_feature=0
split_gain=0.825917
threshold=0
decision_type=1
left_child=-1
right_child=-2
leaf_value=0.012742630581232178 -0.0079068516368936016
leaf_weight=0.4279718943653279 2.4635466556937904
leaf_count=4407 35193
internal_value=0.0118735
internal_weight=2.89152
internal_count=39600
cat_boundaries=0 1
cat_threshold=8
is_linear=0
shrinkage=0.05


Tree=61
num_leaves=2
num_cat=1
split_feature=0
split_gain=0.293513
threshold=0
decision_type=1
left_child=-1
right_child=-2
leaf_value=0.0076261867008868729 -0.005244696411033316
leaf_weight=0.49840692085854243 1.5089664895385797
leaf_count=8770 30830
internal_value=0.0098147
internal_weight=2.00737
internal_count=39600
cat_boundaries=0 1
cat_threshold=520
is_linear=0
shrinkage=0.05


Tree=62
num_leaves=4
num_cat=3
split_feature=0 2 1
split_gain=70.7545 16.5619 0.7121
threshold=0 1 2
decision_type=1 9 9
left_child=1 2 -1
right_child=-2 -3 -4
leaf_value=0.08364476384173597 -0.032607541107766938 -0.018053230359731592 -0.013615603613307478
leaf_weight=26.341438970062882 43.836981254746206 8.2046136177377758 5.1182693783193853
leaf_count=3422 30786 4631 761
internal_value=0.0089793 0.0504442 0.0683538
internal_weight=83.5013 39.6643 31.4597
internal_count=39600 8814 4183
cat_boundaries=0 1 2 3
cat_threshold=136 1 1
is_linear=0
shrinkage=0.05


Tree=63
num_leaves=12
num_cat=11
split_feature=0 1 2 0 0 1 0 2 0 2 0
split_gain=2457.08 1172.28 631.602 169.938 128.795 363.44 66.4967 96.0857 27.2352 14.1883 2.00853
threshold=0 1 2 3 4 5 6 7 8 9 10
decision_type=1 9 9 1 1 9 1 9 1 9 1
left_child=1 6 4 9 5 -2 -1 -8 -5 -3 -6
right_child=2 3 -4 8 10 -7 7 -9 -10 -11 -12
leaf_value=-0.049310093742565397 0.023269693381686093 0.016083267962311663 0.045270198186993071 0.033254612736031565 -0.038629013890288721 -0.034162672029453341 0.0043482149448150166 -0.041699239112848917 0.046760236887616845 0.04214222067879745 -0.048488291709434639
leaf_weight=309.93141694366932 325.89537343382835 903.87345433235168 264.18474546074867 797.11862871050835 886.35389776527882 1641.4579233527184 235.12265086174011 211.32102982699871 2008.1130544990301 56.293258666992188 877.83480414748192
leaf_count=1461 1328 3365 1422 4058 4039 6737 775 999 11043 288 4085
internal_value=0.000105226 0.0253236 -0.0284254 0.0367378 -0.03375 -0.0245793 -0.0312366 -0.0178841 0.0430543 0.0180297 -0.0437805
internal_weight=8517.5 4521.77 3995.73 3765.4 3731.54 1967.35 756.375 446.444 2805.23 960.167 1764.19
internal_count=39600 21989 17611 18754 16189 8065 3235 1774 15101 3653 8124
cat_boundaries=0 1 2 3 4 5 6 7 8 9 10 11
cat_threshold=992 2 3 32 24 2 160 2 256 10 2048
is_linear=0
shrinkage=0.05


Tree=64
num_leaves=13
num_cat=12
split_feature=0 1 2 0 1 0 1 0 0 2 2 0
split_gain=2450.23 1202.2 622.795 186.304 314.655 140.855 348.776 139.398 66.8771 95.6812 14.3463 1.85212
threshold=0 1 2 3 4 5 6 7 8 9 10 11
decision_type=1 9 9 1 9 1 9 1 1 9 9 1
left_child=2 8 5 4 7 11 -7 10 -2 -10 -3 -1
right_child=1 3 -4 -5 -6 6 -8 -9 9 -11 -12 -13
leaf_value=0.04858008260040142 0.049547292465743291 -0.015867133217670717 -0.045182944405591653 -0.047856184986288901 0.052711229473767697 0.03325684784288041 -0.023060893228178295 -0.048009607684996493 0.041811931534834167 -0.0041204349324094969 -0.042051372508102647 0.038761982696120828
leaf_weight=881.35512527823448 313.45126737654209 901.69035419821739 262.81882444024086 1983.7433838844299 113.86485266685486 1647.278603464365 324.78205364942551 680.05341237783432 212.18970501422882 234.8778709769249 56.033496379852295 889.78773185610771
leaf_count=4085 1461 3365 1422 11043 432 6737 1328 3626 999 775 288 4039
internal_value=-0.000199964 -0.0255106 0.0281991 -0.0371806 -0.0248875 0.0334581 0.0239122 -0.0305696 0.0315467 0.0181181 -0.0178178 0.043893
internal_weight=8501.93 4495.9 4006.02 3735.39 1751.64 3743.2 1972.06 1637.78 760.519 447.068 957.724 1771.14
internal_count=39600 21989 17611 18754 7711 16189 8065 7279 3235 1774 3653 8124
cat_boundaries=0 1 2 3 4 5 6 7 8 9 10 11 12
cat_threshold=3096 2 3 288 1 3072 1 32 160 1 10 1024
is_linear=0
shrinkage=0.05


Tree=65
num_leaves=2
num_cat=1
split_feature=0
split_gain=0.774819
threshold=0
decision_type=1
left_child=-1
right_child=-2
leaf_value=0.012749776233493394 -0.0077151755076327088
leaf_weight=0.426559466352046 2.3895600803734856
leaf_count=4407 35193
internal_value=0.0132625
internal_weight=2.81612
internal_count=39600
cat_boundaries=0 1
cat_threshold=8
is_linear=0
shrinkage=0.05


Tree=66
num_leaves=2
num_cat=1
split_feature=0
split_gain=0.271501
threshold=0
decision_type=1
left_child=-1
right_child=-2
leaf_value=0.0076603804546134698 -0.0051239147706765376
leaf_weight=0.49087540479376912 1.4691125130957514
leaf_count=8770 30830
internal_value=0.0110191
internal_weight=1.95999
internal_count=39600
cat_boundaries=0 1
cat_threshold=520
is_linear=0
shrinkage=0.05


Tree=67
num_leaves=4
num_cat=3
split_feature=0 2 1
split_gain=66.4678 14.9609 0.288874
threshold=0 1 2
decision_type=1 9 9
left_child=1 2 -1
right_child=-2 -3 -4
leaf_value=0.07899728136559582 -0.032272634761965284 -0.017708238342890505 -0.013236596083671451
leaf_weight=27.754637793637812 41.530078562325798 7.9242777255130923 4.9075461151078335
leaf_count=3422 30786 4631 761
internal_value=0.00980034 0.0487834 0.0652847
internal_weight=82.1165 40.5865 32.6622
internal_count=39600 8814 4183
cat_boundaries=0 1 2 3
cat_threshold=136 1 1
is_linear=0
shrinkage=0.05


Tree=68
num_leaves=13
num_cat=12
split_feature=0 1 2 0 0 1 0 2 1 0 2 2
split_gain=2182.34 1046.74 563.118 168.107 122.001 319.86 63.3245 87.3087 36.9929 378.028 13.9139 2.94573
threshold=0 1 2 3 4 5 6 7 8 9 10 11
decision_type=1 9 9 1 1 9 1 9 9 1 9 9
left_child=1 6 4 10 5 -2 -1 -8 9 -5 -3 -6
right_child=2 3 -4 8 11 -7 7 -9 -10 -11 -12 -13
leaf_value=-0.048205663297636626 0.021952222377644222 0.015004550826969552 0.044323529279733362 0.046599337714709449 -0.037189409219941912 -0.032563031055357766 0.0040256944552171346 -0.040418863811726921 0.045849337336204103 -0.054436426903846251 0.041147533859464312 -0.047296215019555575
leaf_weight=292.61780285835266 318.84059232473373 892.89768248796463 249.12171998620033 541.5240016579628 848.80674666166306 1589.0140959769487 234.77495163679123 201.30352771282196 2004.7973497360945 103.77205449342728 53.41038179397583 830.28701113164425
leaf_count=1461 1328 3365 1422 3190 4039 6737 775 999 11509 402 288 4085
internal_value=0.00010444 0.0244281 -0.0273125 0.0355039 -0.0323971 -0.0233855 -0.029976 -0.0169371 0.0420603 0.0297687 0.0168949 -0.0424375
internal_weight=8161.17 4325.1 3836.07 3596.4 3586.95 1907.85 728.696 436.078 2650.09 645.296 946.308 1679.09
internal_count=39600 21989 17611 18754 16189 8065 3235 1774 15101 3592 3653 8124
cat_boundaries=0 1 2 3 4 5 6 7 8 9 10 11 12
cat_threshold=992 2 3 32 24 2 160 2 4 512 10 2
is_linear=0
shrinkage=0.05


Tree=69
num_leaves=13
num_cat=12
split_feature=0 1 2 0 1 0 0 1 0 2 2 2
split_gain=2175.02 1075.01 554.759 186.158 300.348 138.417 133.889 305.895 63.6694 86.9479 14.0612 2.78846
threshold=0 1 2 3 4 5 6 7 8 9 10 11
decision_type=1 9 9 1 9 1 1 9 1 9 9 9
left_child=2 8 6 4 5 10 11 -8 -2 -10 -3 -1
right_child=1 3 -4 -5 -6 -7 7 -9 9 -11 -12 -13
leaf_value=0.047381538108823604 0.048426573939309804 -0.014792432945780136 -0.044240490292088264 -0.04706278059341433 0.052367448588618054 -0.047264997973227835 0.031620466764360498 -0.021744421799507144 0.040527912739527591 -0.0038044254160233717 -0.041060607420803197 0.037319663317910846
leaf_weight=833.8007857054472 296.17765775322914 890.71718975901604 247.77693946659565 1862.6924981027842 112.97350525856018 645.40056318044662 1594.9419642984867 317.72246977686882 202.16587002575397 234.53206568956375 53.154769420623779 852.22545443475246
leaf_count=4085 1461 3365 1422 11043 432 3626 6737 1328 999 775 288 4039
internal_value=-0.000210709 -0.0246281 0.0270655 -0.0359695 -0.0236267 -0.0293224 0.0320841 0.0226888 0.0302816 0.0171667 -0.0166867 0.0425457
internal_weight=8144.28 4297.81 3846.47 3564.94 1702.25 1589.27 3598.69 1912.66 732.876 436.698 943.872 1686.03
internal_count=39600 21989 17611 18754 7711 7279 16189 8065 3235 1774 3653 8124
cat_boundaries=0 1 2 3 4 5 6 7 8 9 10 11 12
cat_threshold=3096 2 3 288 1 32 3072 1 160 1 10 1
is_linear=0
shrinkage=0.05


Tree=70
num_leaves=2
num_cat=1
split_feature=0
split_gain=0.719439
threshold=0
decision_type=1
left_child=-1
right_child=-2
leaf_value=0.01275684818752746 -0.0075209703013811085
leaf_weight=0.42516199027886614 2.3154875084801465
leaf_count=4407 35193
internal_value=0.0147293
internal_weight=2.74065
internal_count=39600
cat_boundaries=0 1
cat_threshold=8
is_linear=0
shrinkage=0.05


Tree=71
num_leaves=2
num_cat=1
split_feature=0
split_gain=0.246922
threshold=0
decision_type=1
left_child=-1
right_child=-2
leaf_value=0.0076949152431992004 -0.0050007076129185259
leaf_weight=0.48327977718872717 1.4287414570790131
leaf_count=8770 30830
internal_value=0.0122991
internal_weight=1.91202
internal_count=39600
cat_boundaries=0 1
cat_threshold=520
is_linear=0
shrinkage=0.05


Tree=72
num_leaves=3
num_cat=2
split_feature=0 2
split_gain=62.434 13.5575
threshold=0 1
decision_type=1 9
left_child=1 -1
right_child=-2 -3
leaf_value=0.06253090121938569 -0.031920368534431788 -0.017368073646921264
leaf_weight=33.801728243008256 39.306435326812789 7.6561448812717563
leaf_count=4183 30786 4631
internal_value=0.0106288 0.047268
internal_weight=80.7643 41.4579
internal_count=39600 8814
cat_boundaries=0 1 2
cat_threshold=136 1
is_linear=0
shrinkage=0.05


Tree=73
num_leaves=12
num_cat=11
split_feature=0 1 2 0 0 1 0 2 0 2 0
split_gain=1941.13 937.403 502.515 168.047 115.751 281.574 60.473 79.4073 25.1179 13.6092 3.88406
threshold=0 1 2 3 4 5 6 7 8 9 10
decision_type=1 9 9 1 1 9 1 9 1 9 1
left_child=1 6 4 9 5 -2 -1 -8 -5 -3 -6
right_child=2 3 -4 8 10 -7 7 -9 -10 -11 -12
leaf_value=-0.047209871228834591 0.020700271766350739 0.013992303829622899 0.0434417831042496 0.031395268906238463 -0.035817126539478598 -0.031042742824916619 0.0037270531170426956 -0.039205928118261422 0.045084478635260446 0.040212030471452345 -0.046207267086002507
leaf_weight=275.79433120787144 312.09021280705929 882.43336319923401 234.68513202667236 717.91868603229523 812.67125178873539 1538.194449454546 234.44630727171898 191.63546825945377 1774.0211365371943 50.635209560394287 784.01903590559959
leaf_count=1461 1328 3365 1422 4058 4039 6737 775 999 11043 288 4085
internal_value=0.000103133 0.0236226 -0.0262534 0.0344134 -0.0311104 -0.0222508 -0.0287783 -0.0160388 0.0412819 0.0158265 -0.0411748
internal_weight=7808.54 4126.88 3681.66 3425.01 3446.97 1850.28 701.876 426.082 2491.94 933.069 1596.69
internal_count=39600 21989 17611 18754 16189 8065 3235 1774 15101 3653 8124
cat_boundaries=0 1 2 3 4 5 6 7 8 9 10 11
cat_threshold=992 2 3 32 24 2 160 2 256 10 2048
is_linear=0
shrinkage=0.05


Tree=74
num_leaves=13
num_cat=12
split_feature=0 1 2 0 1 0 0 1 0 2 2 0
split_gain=1933.48 964.195 494.583 183.285 269 135.505 127.479 268.277 60.7943 79.0878 13.7461 3.72581
threshold=0 1 2 3 4 5 6 7 8 9 10 11
decision_type=1 9 9 1 9 1 1 9 1 9 9 1
left_child=2 8 6 4 5 10 11 -8 -2 -10 -3 -1
right_child=1 3 -4 -5 -6 -7 7 -9 9 -11 -12 -13
leaf_value=0.04628715744245715 0.047416816480516093 -0.013783995690481469 -0.043362188852516984 -0.046346207213068771 0.050778835102455067 -0.046473300287625446 0.030063129987901411 -0.02049313874364846 0.039312208133749894 -0.0035120379242983379 -0.040128372240392972 0.035945539939147099
leaf_weight=787.50012829899788 279.3677321523428 880.26259809732437 233.36714722216129 1746.7468576878309 108.36867809295654 606.46138632297516 1544.1947833746672 310.97114391624928 192.48680090904236 234.20577719807625 50.384798526763916 816.05626125633717
leaf_count=4085 1461 3365 1422 11043 432 3626 6737 1328 999 775 288 4039
internal_value=-0.000221765 -0.0238367 0.0259854 -0.0349041 -0.0225511 -0.0280158 0.030776 0.0215242 0.0290806 0.0162644 -0.0156217 0.0412797
internal_weight=7790.37 4098.28 3692.09 3392.22 1645.48 1537.11 3458.72 1855.17 706.06 426.693 930.647 1603.56
internal_count=39600 21989 17611 18754 7711 7279 16189 8065 3235 1774 3653 8124
cat_boundaries=0 1 2 3 4 5 6 7 8 9 10 11 12
cat_threshold=3096 2 3 288 1 32 3072 1 160 1 10 1024
is_linear=0
shrinkage=0.05


Tree=75
num_leaves=2
num_cat=1
split_feature=0
split_gain=0.663189
threshold=0
decision_type=1
left_child=-1
right_child=-2
leaf_value=0.012763651282977802 -0.0073362913755354369
leaf_weight=0.42381783916061977 2.2458650296030105
leaf_count=4407 35193
internal_value=0.0161842
internal_weight=2.66968
internal_count=39600
cat_boundaries=0 1
cat_threshold=8
is_linear=0
shrinkage=0.05


Tree=76
num_leaves=2
num_cat=1
split_feature=0
split_gain=0.221527
threshold=0
decision_type=1
left_child=-1
right_child=-2
leaf_value=0.0077287024250752116 -0.004884274261644758
leaf_weight=0.47585918631375534 1.3908502398735434
leaf_count=8770 30830
internal_value=0.0135687
internal_weight=1.86671
internal_count=39600
cat_boundaries=0 1
cat_threshold=520
is_linear=0
shrinkage=0.05


Tree=77
num_leaves=4
num_cat=3
split_feature=0 2 1
split_gain=58.7775 12.3306 1.22523
threshold=0 1 2
decision_type=1 9 9
left_child=1 2 -1
right_child=-2 -3 -4
leaf_value=0.072317874883253586 -0.031565349143219922 -0.017033691363359593 -0.013150310293158919
leaf_weight=29.98888198658824 37.250406056293286 7.4002350230002767 4.8603664818219832
leaf_count=3422 30786 4631 761
internal_value=0.0114293 0.0459354 0.0601235
internal_weight=79.4999 42.2495 34.8492
internal_count=39600 8814 4183
cat_boundaries=0 1 2 3
cat_threshold=136 1 1
is_linear=0
shrinkage=0.05


Tree=78
num_leaves=12
num_cat=11
split_feature=0 1 2 0 0 1 0 2 0 2 2
split_gain=1725.1 837.604 448.758 165.867 109.932 247.884 57.8608 72.2679 25.4684 13.2764 4.84018
threshold=0 1 2 3 4 5 6 7 8 9 10
decision_type=1 9 9 1 1 9 1 9 1 9 9
left_child=1 6 4 9 5 -2 -1 -8 -5 -3 -6
right_child=2 3 -4 8 10 -7 7 -9 -10 -11 -12
leaf_value=-0.046304126717256332 0.019509642866769279 0.013042467913881721 0.042614505246377055 0.030338441104747683 -0.034496575603261533 -0.029591962293219344 0.0034505515836242744 -0.038048851330066573 0.04434128079632646 0.039327070916058124 -0.045207693081224125
leaf_weight=259.50871826708317 305.65564331412315 872.49273121356964 220.90445494651794 685.13924998044968 777.94127254188061 1489.2412640303373 234.13639441132545 182.3506094366312 1664.7348083555698 47.974316596984863 739.40711590647697
leaf_count=1461 1328 3365 1422 4058 4039 6737 775 999 11043 288 4085
internal_value=0.000101072 0.0227947 -0.0252396 0.0332707 -0.0298796 -0.0211686 -0.0276324 -0.0151853 0.0404044 0.0148203 -0.0399779
internal_weight=7479.49 3946.34 3533.15 3270.34 3312.25 1794.9 675.996 416.487 2349.87 920.467 1517.35
internal_count=39600 21989 17611 18754 16189 8065 3235 1774 15101 3653 8124
cat_boundaries=0 1 2 3 4 5 6 7 8 9 10 11
cat_threshold=992 2 3 32 24 2 160 2 256 10 2
is_linear=0
shrinkage=0.05


Tree=79
num_leaves=13
num_cat=12
split_feature=0 1 2 0 1 0 0 1 0 2 2 2
split_gain=1717.04 863.515 441.233 183.143 256.906 134.233 121.507 235.225 58.2475 71.9873 13.4033 4.68093
threshold=0 1 2 3 4 5 6 7 8 9 10 11
decision_type=1 9 9 1 9 1 1 9 1 9 9 9
left_child=2 8 6 4 5 10 11 -8 -2 -10 -3 -1
right_child=1 3 -4 -5 -6 -7 7 -9 9 -11 -12 -13
leaf_value=0.045283060297253833 0.046511660937772183 -0.01283780388774805 -0.042537666953352427 -0.045697098739519423 0.050467287686384192 -0.045856882695289675 0.028574982666901678 -0.019302921056388408 0.038153124167128599 -0.003241543059854567 -0.03924611362973722 0.034623906176332216
leaf_weight=742.83438602089882 263.29940444231033 870.3376105427742 219.61762851476669 1636.3723204284906 107.42469084262848 574.67810192704201 1495.2828567922115 304.53881153464317 183.18724358081818 233.89854356646538 47.729926586151123 781.27821560204029
leaf_count=4085 1461 3365 1422 11043 432 3626 6737 1328 999 775 288 4039
internal_value=-0.000232307 -0.0230194 0.0249503 -0.0337858 -0.0213969 -0.02687 0.0295236 0.0204119 0.0279434 0.0154069 -0.0146188 0.0400804
internal_weight=7460.48 3916.93 3543.55 3236.54 1600.17 1492.75 3323.93 1799.82 680.385 417.086 918.068 1524.11
internal_count=39600 21989 17611 18754 7711 7279 16189 8065 3235 1774 3653 8124
cat_boundaries=0 1 2 3 4 5 6 7 8 9 10 11 12
cat_threshold=3096 2 3 288 1 32 3072 1 160 1 10 1
is_linear=0
shrinkage=0.05


Tree=80
num_leaves=2
num_cat=1
split_feature=0
split_gain=0.604655
threshold=0
decision_type=1
left_child=-1
right_child=-2
leaf_value=0.012770027336556446 -0.0071558816908662368
leaf_weight=0.42255855551047716 2.1786077117576501
leaf_count=4407 35193
internal_value=0.0176643
internal_weight=2.60117
internal_count=39600
cat_boundaries=0 1
cat_threshold=8
is_linear=0
shrinkage=0.05


Tree=81
num_leaves=2
num_cat=1
split_feature=0
split_gain=0.194573
threshold=0
decision_type=1
left_child=-1
right_child=-2
leaf_value=0.0077620037988033784 -0.004770567195524383
leaf_weight=0.4685555603064131 1.3540878686035283
leaf_count=8770 30830
internal_value=0.0148639
internal_weight=1.82264
internal_count=39600
cat_boundaries=0 1
cat_threshold=520
is_linear=0
shrinkage=0.05


Tree=82
num_leaves=4
num_cat=3
split_feature=0 2 1
split_gain=55.3425 11.2423 0.7218
threshold=0 1 2
decision_type=1 9 9
left_child=1 2 -1
right_child=-2 -3 -4
leaf_value=0.06900317644476843 -0.031201629395086812 -0.016705935938474706 -0.012762587895628025
leaf_weight=31.198411784134805 35.313614969723858 7.1564585900632656 4.6519385753199449
leaf_count=3422 30786 4631 761
internal_value=0.012198 0.0446963 0.0579238
internal_weight=78.3204 43.0068 35.8504
internal_count=39600 8814 4183
cat_boundaries=0 1 2 3
cat_threshold=136 1 1
is_linear=0
shrinkage=0.05


Tree=83
num_leaves=12
num_cat=11
split_feature=0 1 2 0 0 1 0 2 0 2 0
split_gain=1533.24 748.665 400.977 163.467 104.453 218.201 55.4632 65.7971 25.8056 12.9185 5.77759
threshold=0 1 2 3 4 5 6 7 8 9 10
decision_type=1 9 9 1 1 9 1 9 1 9 1
left_child=1 6 4 9 5 -2 -1 -8 -5 -3 -6
right_child=2 3 -4 8 10 -7 7 -9 -10 -11 -12
leaf_value=-0.045479171518549202 0.018376853843662014 0.01215137775667389 0.041832776675205435 0.029320276044864643 -0.033223891548486255 -0.028202903867176523 0.0031945678972297256 -0.036938046496408715 0.043650931853503536 0.03848537769031847 -0.044280002836942153
leaf_weight=243.90332521498203 299.54227650165558 863.07949706912041 207.79524180293083 653.79322960972786 744.83200240135193 1442.3207641243935 233.8446818292141 173.47099962830544 1561.137524202466 45.43165111541748 696.49122156202793
leaf_count=1461 1328 3365 1422 4058 4039 6737 775 999 11043 288 4085
internal_value=0.000100352 0.0219944 -0.0242642 0.0321648 -0.0286965 -0.0201336 -0.0265349 -0.014373 0.0395717 0.0138729 -0.0388348
internal_weight=7165.64 3774.66 3390.98 3123.44 3183.19 1741.86 651.219 407.316 2214.93 908.511 1441.32
internal_count=39600 21989 17611 18754 16189 8065 3235 1774 15101 3653 8124
cat_boundaries=0 1 2 3 4 5 6 7 8 9 10 11
cat_threshold=992 2 3 32 24 2 160 2 256 10 2048
is_linear=0
shrinkage=0.05


Tree=84
num_leaves=13
num_cat=12
split_feature=0 1 2 0 1 0 0 1 0 2 2 0
split_gain=1524.95 773.111 393.844 182.827 245.321 132.777 115.877 206.154 55.8387 65.5526 13.0359 5.61735
threshold=0 1 2 3 4 5 6 7 8 9 10 11
decision_type=1 9 9 1 9 1 1 9 1 9 9 1
left_child=2 8 6 4 5 10 11 -8 -2 -10 -3 -1
right_child=1 3 -4 -5 -6 -7 7 -9 9 -11 -12 -13
leaf_value=0.04435162429600701 0.045675777988629339 -0.011950228694660029 -0.041758074000377697 -0.045105765616433813 0.050149174106554395 -0.045290197806979272 0.027148453785149036 -0.018170352919237916 0.037040974469200405 -0.0029913301760160606 -0.038406626074579023 0.03335079113497981
leaf_weight=699.84802228212357 247.66384519636631 860.94463393092155 206.5428813546896 1531.4902830570936 106.43710732460022 544.37933602929115 1448.3821887373924 298.43030108511448 174.29008421301842 233.60983356833458 45.193891525268555 748.10935732722282
leaf_count=4085 1461 3365 1422 11043 432 3626 6737 1328 999 775 288 4039
internal_value=-0.000244563 -0.0222322 0.0239534 -0.0327024 -0.0202919 -0.0257688 0.0283187 0.0193467 0.0268443 0.014591 -0.0136746 0.0389356
internal_weight=7145.32 3744.01 3401.31 3088.45 1556.95 1450.52 3194.77 1746.81 655.564 407.9 906.139 1447.96
internal_count=39600 21989 17611 18754 7711 7279 16189 8065 3235 1774 3653 8124
cat_boundaries=0 1 2 3 4 5 6 7 8 9 10 11 12
cat_threshold=3096 2 3 288 1 32 3072 1 160 1 10 1024
is_linear=0
shrinkage=0.05


Tree=85
num_leaves=2
num_cat=1
split_feature=0
split_gain=0.544003
threshold=0
decision_type=1
left_child=-1
right_child=-2
leaf_value=0.012775834882631208 -0.0069800588320439606
leaf_weight=0.4214117307565175 2.1137671081196463
leaf_count=4407 35193
internal_value=0.0191653
internal_weight=2.53518
internal_count=39600
cat_boundaries=0 1
cat_threshold=8
is_linear=0
shrinkage=0.05


Tree=86
num_leaves=2
num_cat=1
split_feature=0
split_gain=0.166133
threshold=0
decision_type=1
left_child=-1
right_child=-2
leaf_value=0.0077946704251619855 -0.0046598072932638752
leaf_weight=0.46140101120545296 1.3185056141446692
leaf_count=8770 30830
internal_value=0.0161813
internal_weight=1.77991
internal_count=39600
cat_boundaries=0 1
cat_threshold=520
is_linear=0
shrinkage=0.05


Tree=87
num_leaves=4
num_cat=3
split_feature=0 2 1
split_gain=52.1448 10.2774 0.274495
threshold=0 1 2
decision_type=1 9 9
left_child=1 2 -1
right_child=-2 -3 -4
leaf_value=0.066050340426820939 -0.030829977125474358 -0.016385488685466416 -0.012379607605445833
leaf_weight=32.338979338295758 33.491215961053967 6.9245994738303116 4.4515944956801823
leaf_count=3422 30786 4631 761
internal_value=0.0129451 0.0435683 0.0559429
internal_weight=77.2064 43.7152 36.7906
internal_count=39600 8814 4183
cat_boundaries=0 1 2 3
cat_threshold=136 1 1
is_linear=0
shrinkage=0.05


Tree=88
num_leaves=13
num_cat=12
split_feature=0 1 2 0 0 1 0 2 1 0 2 2
split_gain=1362.54 669.175 358.44 160.794 99.2467 192.026 53.2234 59.9169 37.4775 310.122 14.2371 6.71328
threshold=0 1 2 3 4 5 6 7 8 9 10 11
decision_type=1 9 9 1 1 9 1 9 9 1 9 9
left_child=1 6 4 10 5 -2 -1 -8 9 -5 -3 -6
right_child=2 3 -4 8 11 -7 7 -9 -10 -11 -12 -13
leaf_value=-0.044721152619016769 0.017298986026622956 0.011184598931746333 0.041088936205877835 0.043964232164609075 -0.031987383682152787 -0.026869511173793843 0.0029575989232290606 -0.035865560476933449 0.042994475161530349 -0.052300835225494828 0.038509655368553629 -0.043415281652602729
leaf_weight=228.97749622166157 293.75068639218807 851.65149569511414 195.36202038824558 416.65589526295662 713.2594191133976 1397.5409692972898 233.57059210538864 165.00928674638271 1574.0381415188313 96.209134072065353 45.547470092773438 655.51522327959538
leaf_count=1461 1328 3355 1422 3190 4039 6737 775 999 11509 402 298 4085
internal_value=9.9645e-05 0.0212169 -0.0233219 0.0310891 -0.0275545 -0.0191415 -0.0254781 -0.0135994 0.0387751 0.0252508 0.012981 -0.0377355
internal_weight=6867.09 3611.66 3255.43 2984.1 3060.07 1691.29 627.557 398.58 2086.9 512.865 897.199 1368.77
internal_count=39600 21989 17611 18754 16189 8065 3235 1774 15101 3592 3653 8124
cat_boundaries=0 1 2 3 4 5 6 7 8 9 10 11 12
cat_threshold=992 2 3 32 24 2 160 2 4 512 2 2
is_linear=0
shrinkage=0.05


Tree=89
num_leaves=13
num_cat=12
split_feature=0 1 2 0 1 0 0 1 0 2 2 2
split_gain=1354.07 692.229 351.68 182.286 234.224 131.133 110.517 180.566 53.5947 59.7058 14.3514 6.55216
threshold=0 1 2 3 4 5 6 7 8 9 10 11
decision_type=1 9 9 1 9 1 1 9 1 9 9 9
left_child=2 8 6 4 5 10 11 -8 -2 -10 -3 -1
right_child=1 3 -4 -5 -6 -7 7 -9 9 -11 -12 -13
leaf_value=0.043483854279773249 0.044908489699604891 -0.010986547516131151 -0.041015807354316258 -0.044564906789897357 0.049825597039107584 -0.044767120674956085 0.025777503558372408 -0.017092569275542476 0.035967733249911787 -0.0027599131389574689 -0.038433588445003428 0.032114419622047592
leaf_weight=658.78879708051682 232.6917516887188 849.54717367887497 194.146464407444 1432.1568121016026 105.40773916244507 515.56146851181984 1403.6027683019638 292.64570169150829 165.80867233872414 233.33897739648819 45.310502171516418 716.46867150068283
leaf_count=4085 1461 3355 1422 11043 432 3626 6737 1328 999 775 298 4039
internal_value=-0.000257266 -0.0214678 0.0229892 -0.0316487 -0.0192334 -0.024709 0.0271548 0.0183245 0.0257865 0.0138137 -0.0127857 0.0378353
internal_weight=6845.48 3579.82 3265.65 2947.98 1515.83 1410.42 3071.51 1696.25 631.839 399.148 894.858 1375.26
internal_count=39600 21989 17611 18754 7711 7279 16189 8065 3235 1774 3653 8124
cat_boundaries=0 1 2 3 4 5 6 7 8 9 10 11 12
cat_threshold=3096 2 3 288 1 32 3072 1 160 1 2 1
is_linear=0
shrinkage=0.05


Tree=90
num_leaves=2
num_cat=1
split_feature=0
split_gain=0.478925
threshold=0
decision_type=1
left_child=-1
right_child=-2
leaf_value=0.012780958419921235 -0.0068024354579878767
leaf_weight=0.42040026637550909 2.0489596781480945
leaf_count=4407 35193
internal_value=0.0207424
internal_weight=2.46936
internal_count=39600
cat_boundaries=0 1
cat_threshold=8
is_linear=0
shrinkage=0.05


Tree=91
num_leaves=2
num_cat=1
split_feature=0
split_gain=0.134929
threshold=0
decision_type=1
left_child=-1
right_child=-2
leaf_value=0.0078271459457808328 -0.0045471555690736109
leaf_weight=0.45429796572716441 1.2825436233288199
leaf_count=8770 30830
internal_value=0.0175743
internal_weight=1.73684
internal_count=39600
cat_boundaries=0 1
cat_threshold=520
is_linear=0
shrinkage=0.05


Tree=92
num_leaves=3
num_cat=2
split_feature=0 2
split_gain=49.1085 9.41804
threshold=0 1
decision_type=1 9
left_child=1 -1
right_child=-2 -3
leaf_value=0.054143207069472989 -0.030441314141610495 -0.016072906117935697
leaf_weight=37.678562010638416 31.735203315794934 6.7043616411974645
leaf_count=4183 30786 4631
internal_value=0.0136959 0.0425314
internal_weight=76.1181 44.3829
internal_count=39600 8814
cat_boundaries=0 1 2
cat_threshold=136 1
is_linear=0
shrinkage=0.05


Tree=93
num_leaves=15
num_cat=14
split_feature=0 1 2 0 0 1 0 0 2 0 0 2 0 0
split_gain=1211.98 599.813 320.52 159.777 94.2577 168.93 125.792 51.1091 54.5618 46.1178 23.7804 13.7277 7.6141 0.378248
threshold=0 1 2 3 4 5 6 7 8 9 10 11 12 13
decision_type=1 9 9 1 1 9 1 1 9 1 1 9 1 1
left_child=1 7 4 11 5 6 -2 -1 -9 -7 -5 -3 -6 -10
right_child=2 3 -4 10 12 9 -8 8 13 -11 -12 -13 -14 -15
leaf_value=-0.044020314066004207 0.048169051284162268 0.010409162503193421 0.040376361746311838 0.027804896342662939 -0.030786244751343408 -0.015726487966417138 -0.016247401826519719 0.0027382586278759421 -0.042173975481971659 -0.035052805901241595 0.042392500930630961 0.037711266649974463 -0.042600287388431579 -0.017519917074565239
leaf_weight=214.75539562106133 143.10915777087212 843.39968577027321 183.60054279863834 586.3427187204361 683.37001943588257 676.67476600408554 145.16854901611805 233.31345543265343 100.09176541864872 678.28647728264332 1370.1590527743101 43.109086334705353 616.41860817372799 56.87884247303009
leaf_count=1461 659 3355 1422 4058 4039 3364 669 775 639 3373 11043 298 4085 360
internal_value=9.84166e-05 0.0205125 -0.0224082 0.0301351 -0.0264485 -0.0181893 0.0162735 -0.0244574 -0.012862 -0.0255871 0.0381844 0.0121426 -0.0366715 -0.0348248
internal_weight=6574.68 3448.05 3126.63 2843.01 2943.03 1643.24 288.278 605.039 390.284 1354.96 1956.5 886.509 1299.79 156.971
internal_count=39600 21989 17611 18754 16189 8065 1328 3235 1774 6737 15101 3653 8124 999
cat_boundaries=0 1 2 3 4 5 6 7 8 9 10 11 12 13 14
cat_threshold=992 2 3 32 24 2 8 160 2 16 256 2 2048 64
is_linear=0
shrinkage=0.05


Tree=94
num_leaves=14
num_cat=13
split_feature=0 1 2 0 1 0 0 1 0 2 2 0 0
split_gain=1203.45 621.635 314.117 179.181 210.25 127.635 105.369 158.035 51.4814 54.3814 13.833 7.45232 0.28358
threshold=0 1 2 3 4 5 6 7 8 9 10 11 12
decision_type=1 9 9 1 9 1 1 9 1 9 9 1 1
left_child=2 8 6 4 5 10 11 -8 -2 12 -3 -1 -10
right_child=1 3 -4 -5 -6 -7 7 -9 9 -11 -12 -13 -14
leaf_value=0.042666422129115145 0.044199882149988101 -0.010214455816826593 -0.040304290173515216 -0.044067361363308709 0.048502210463864881 -0.044188272116441565 0.024457510573282239 -0.016067121728598081 0.042239413569860274 -0.0025459093612416337 -0.037636784551041372 0.030913894284155655 0.017684530258396104
leaf_weight=619.59943716228008 218.41031156480312 841.3229601085186 182.42342376708984 1338.1391261145473 100.70975935459137 482.83030757308006 1361.0076375901699 287.18141210079193 100.5895958840847 233.08523595333099 42.879354596138 686.50487323105335 57.159157633781433
leaf_count=4085 1461 3355 1422 11043 432 3626 6737 1328 639 775 298 4039 360
internal_value=-0.000270354 -0.0207779 0.0220533 -0.0307195 -0.0183345 -0.0235748 0.0260268 0.0173422 0.0247653 0.0130729 -0.0119503 0.036771 0.0349267
internal_weight=6551.84 3415.13 3136.72 2805.88 1467.74 1367.03 2954.29 1648.19 609.244 390.834 884.202 1306.1 157.749
internal_count=39600 21989 17611 18754 7711 7279 16189 8065 3235 1774 3653 8124 999
cat_boundaries=0 1 2 3 4 5 6 7 8 9 10 11 12 13
cat_threshold=3096 2 3 288 1 32 3072 1 160 1 2 1024 64
is_linear=0
shrinkage=0.05


Tree=95
num_leaves=2
num_cat=1
split_feature=0
split_gain=0.414807
threshold=0
decision_type=1
left_child=-1
right_child=-2
leaf_value=0.012790513693319738 -0.0066385047495190787
leaf_weight=0.41851436412252951 1.9897601666889388
leaf_count=4407 35193
internal_value=0.0222832
internal_weight=2.40827
internal_count=39600
cat_boundaries=0 1
cat_threshold=8
is_linear=0
shrinkage=0.05


Tree=96
num_leaves=2
num_cat=1
split_feature=0
split_gain=0.103843
threshold=0
decision_type=1
left_child=-1
right_child=-2
leaf_value=0.0078610135936396357 -0.0044443713139471061
leaf_weight=0.44690069932767074 1.2499303452204911
leaf_count=8770 30830
internal_value=0.018932
internal_weight=1.69683
internal_count=39600
cat_boundaries=0 1
cat_threshold=520
is_linear=0
shrinkage=0.05


Tree=97
num_leaves=4
num_cat=3
split_feature=0 2 1
split_gain=46.4222 8.60849 0.581841
threshold=0 1 2
decision_type=1 9 9
left_child=1 2 -1
right_child=-2 -3 -4
leaf_value=0.061755982290272599 -0.03005891182902112 -0.015745853358276472 -0.012194619448274137
leaf_weight=34.114650242961943 30.140007023874205 6.4799556036014101 4.3567195064388207
leaf_count=3422 30786 4631 761
internal_value=0.0144253 0.0416692 0.0525933
internal_weight=75.0913 44.9513 38.4714
internal_count=39600 8814 4183
cat_boundaries=0 1 2 3
cat_threshold=136 1 1
is_linear=0
shrinkage=0.05


Tree=98
num_leaves=15
num_cat=14
split_feature=0 1 2 0 0 1 0 0 2 0 0 2 2 0
split_gain=1075.88 536.61 286.669 156.478 89.4662 148.838 120.795 48.9567 49.8829 45.6393 24.027 13.2117 8.49665 0.618232
threshold=0 1 2 3 4 5 6 7 8 9 10 11 12 13
decision_type=1 9 9 1 1 9 1 1 9 1 1 9 9 1
left_child=1 7 4 11 5 6 -2 -1 -9 -7 -5 -3 -6 -10
right_child=2 3 -4 10 12 9 -8 8 13 -11 -12 -13 -14 -15
leaf_value=-0.043367087851024728 0.047384399404813413 0.0096828070831491524 0.039689311524516331 0.026880166725162136 -0.029611428192439934 -0.014505856959719697 -0.016241713090964133 0.0025352539427689579 -0.041404911854966663 -0.033935213607589977 0.041810847901980669 0.03694339344527986 -0.041829193891420563 -0.016687296265962093
leaf_weight=201.22190643846989 138.02401912212372 835.64441025257111 172.49978329986334 559.35862892866135 655.03387476503849 660.4926044344902 145.17851789295673 233.07253271341324 94.221483170986176 654.26305222511292 1282.6014005467296 40.793694227933884 579.35679139196873 55.481389850378036
leaf_count=1461 659 3355 1422 4058 4039 3364 669 775 639 3373 11043 298 4085 360
internal_value=9.29337e-05 0.0197628 -0.0215188 0.0291064 -0.0253731 -0.017273 0.0153261 -0.023488 -0.0121997 -0.0243577 0.0374464 0.0113541 -0.0356359 -0.0338628
internal_weight=6307.24 3302.4 3004.85 2718.4 2832.35 1597.96 283.203 583.997 382.775 1314.76 1841.96 876.438 1234.39 149.703
internal_count=39600 21989 17611 18754 16189 8065 1328 3235 1774 6737 15101 3653 8124 999
cat_boundaries=0 1 2 3 4 5 6 7 8 9 10 11 12 13 14
cat_threshold=992 2 3 32 24 2 8 160 2 16 256 2 2 64
is_linear=0
shrinkage=0.05


Tree=99
num_leaves=14
num_cat=13
split_feature=0 1 2 0 1 0 0 1 0 2 2 2 0
split_gain=1067.22 557.599 280.605 178.184 200.819 125.623 100.413 138.481 49.3972 49.7293 13.3084 8.33446 0.525411
threshold=0 1 2 3 4 5 6 7 8 9 10 11 12
decision_type=1 9 9 1 9 1 1 9 1 9 9 9 1
left_child=2 8 6 4 5 10 11 -8 -2 12 -3 -1 -10
right_child=1 3 -4 -5 -6 -7 7 -9 9 -11 -12 -13 -14
leaf_value=0.041893458973995851 0.043550194823285808 -0.0094913770488570526 -0.039617819637958122 -0.043609032098817578 0.048207022362576735 -0.043739865738548128 0.023190693628636194 -0.015120492405670628 0.041468134927793665 -0.0023480267424614925 -0.036870139593092988 0.029740126081642948 0.016851270490802324
leaf_weight=582.43793538212776 205.01030114293098 833.59748065471649 171.36205447465181 1249.7338702008128 99.654264092445374 456.97375053167343 1320.7779281437397 282.11750376224518 94.704735696315765 232.84789323806763 40.571441411972046 658.08993597328663 55.75389701128006
leaf_count=4085 1461 3355 1422 11043 432 3626 6737 1328 639 775 298 4039 360
internal_value=-0.000279322 -0.0200385 0.0211413 -0.029714 -0.017359 -0.0225903 0.024929 0.0163958 0.0238059 0.0124069 -0.0111647 0.0357356 0.0339648
internal_weight=6283.63 3268.85 3014.79 2680.53 1430.8 1331.14 2843.42 1602.9 588.317 383.307 874.169 1240.53 150.459
internal_count=39600 21989 17611 18754 7711 7279 16189 8065 3235 1774 3653 8124 999
cat_boundaries=0 1 2 3 4 5 6 7 8 9 10 11 12 13
cat_threshold=3096 2 3 288 1 32 3072 1 160 1 2 1 64
is_linear=0
shrinkage=0.05


Tree=100
num_leaves=2
num_cat=1
split_feature=0
split_gain=0.349063
threshold=0
decision_type=1
left_child=-1
right_child=-2
leaf_value=0.012799489615283658 -0.0064797538217531122
leaf_weight=0.41674332188267726 1.9329828318368529
leaf_count=4407 35193
internal_value=0.0238352
internal_weight=2.34973
internal_count=39600
cat_boundaries=0 1
cat_threshold=8
is_linear=0
shrinkage=0.05


Tree=101
num_leaves=2
num_cat=1
split_feature=0
split_gain=0.0715175
threshold=0
decision_type=1
left_child=-1
right_child=-2
leaf_value=0.0078940686267448528 -0.0043449397938632285
leaf_weight=0.4396910054529144 1.2185597304596738
leaf_count=8770 30830
internal_value=0.0203031
internal_weight=1.65825
internal_count=39600
cat_boundaries=0 1
cat_threshold=520
is_linear=0
shrinkage=0.05


Tree=102
num_leaves=4
num_cat=3
split_feature=0 2 1
split_gain=43.8562 7.87626 0.159603
threshold=0 1 2
decision_type=1 9 9
left_child=1 2 -1
right_child=-2 -3 -4
leaf_value=0.059551179137777258 -0.029671386776148501 -0.015426556434321836 -0.011815710120712614
leaf_weight=35.085184775292873 28.642739671398886 6.2665863888105369 4.1661648601293555
leaf_count=3422 30786 4631 761
internal_value=0.015102 0.0408256 0.0511152
internal_weight=74.1607 45.5179 39.2513
internal_count=39600 8814 4183
cat_boundaries=0 1 2 3
cat_threshold=136 1 1
is_linear=0
shrinkage=0.05


Tree=103
num_leaves=16
num_cat=15
split_feature=0 1 2 0 0 1 0 0 2 0 1 0 2 0 0
split_gain=954.685 480.034 256.442 152.909 84.8021 131.087 115.978 46.907 45.6109 45.1002 36.3911 264.527 12.6922 9.32951 0.84617
threshold=0 1 2 3 4 5 6 7 8 9 10 11 12 13 14
decision_type=1 9 9 1 1 9 1 1 9 1 9 1 9 1 1
left_child=1 7 4 12 5 6 -2 -1 -9 -7 11 -5 -3 -6 -10
right_child=2 3 -4 10 13 9 -8 8 14 -11 -12 -13 -14 -15 -16
leaf_value=-0.042756856917273406 0.046656067085854264 0.0090028406396800414 0.039022773844831903 0.042454907555952361 -0.028464367077773764 -0.013340789394530622 -0.016193000685080446 0.0023473846835103613 -0.040674592263643589 -0.032859498632364086 0.041257629675228211 -0.050675964090109694 0.036201934478739477 -0.04109151848944536 -0.015884518516670342
leaf_weight=188.43077328801155 133.07247973978519 828.36942128837109 162.04351414740086 339.42569091916084 628.35132184624672 645.36672967672348 145.26385147869587 232.84710794687271 88.648130044341087 631.34935855865479 1305.3508030325174 89.417558073997498 38.599502444267273 544.2084397226572 54.166603088378906
leaf_count=1461 659 3355 1422 3190 4039 3364 669 775 639 3373 11509 402 298 4085 360
internal_value=8.91394e-05 0.0190303 -0.0206529 0.0280994 -0.0243278 -0.0163934 0.0144311 -0.0225503 -0.0115689 -0.0231734 0.0367304 0.022324 0.0106128 -0.0346228 -0.032927
internal_weight=6054.91 3165.26 2889.66 2601.16 2727.61 1555.05 278.336 564.093 375.662 1276.72 1734.19 428.843 866.969 1172.56 142.815
internal_count=39600 21989 17611 18754 16189 8065 1328 3235 1774 6737 15101 3592 3653 8124 999
cat_boundaries=0 1 2 3 4 5 6 7 8 9 10 11 12 13 14 15
cat_threshold=992 2 3 32 24 2 8 160 2 16 4 512 2 2048 64
is_linear=0
shrinkage=0.05


Tree=104
num_leaves=14
num_cat=13
split_feature=0 1 2 0 1 0 0 1 0 2 2 0 0
split_gain=945.979 499.791 250.703 176.86 191.784 123.441 95.5738 121.25 47.3528 45.4817 12.7806 9.16733 0.755307
threshold=0 1 2 3 4 5 6 7 8 9 10 11 12
decision_type=1 9 9 1 9 1 1 9 1 9 9 1 1
left_child=2 8 6 4 5 10 11 -8 -2 12 -3 -1 -10
right_child=1 3 -4 -5 -6 -7 7 -9 9 -11 -12 -13 -14
leaf_value=0.04115442284592008 0.042934424824745923 -0.008814631826635928 -0.038951408395933702 -0.043184021539836817 0.047907766068530838 -0.043320817364135733 0.021969194768742505 -0.01422617321949763 0.040736062775080226 -0.0021650823775939934 -0.036129606123767054 0.028594455748022524 0.016047841114283135
leaf_weight=547.18527206778526 192.13553564250469 826.35408751666546 160.94563689082861 1166.5523186177015 98.562564373016357 432.51604487001896 1282.7071069926023 277.26479029655457 89.115947663784027 232.62611776590347 38.3848577439785 631.325763463974 54.431479096412659
leaf_count=4085 1461 3355 1422 11043 432 3626 6737 1328 639 775 298 4039 360
internal_value=-0.000290107 -0.0193184 0.0202526 -0.0287275 -0.0164242 -0.0216411 0.0238612 0.0154863 0.0228681 0.0117726 -0.0104263 0.0347233 0.0330294
internal_weight=6030.11 3130.68 2899.43 2562.37 1395.82 1297.25 2738.48 1559.97 568.309 376.174 864.739 1178.51 143.547
internal_count=39600 21989 17611 18754 7711 7279 16189 8065 3235 1774 3653 8124 999
cat_boundaries=0 1 2 3 4 5 6 7 8 9 10 11 12 13
cat_threshold=3096 2 3 288 1 32 3072 1 160 1 2 1024 64
is_linear=0
shrinkage=0.05


Tree=105
num_leaves=2
num_cat=1
split_feature=0
split_gain=0.278792
threshold=0
decision_type=1
left_child=-1
right_child=-2
leaf_value=0.012807781385011281 -0.0063192806299210372
leaf_weight=0.41510785918944748 1.8761332067479091
leaf_count=4407 35193
internal_value=0.0254647
internal_weight=2.29124
internal_count=39600
cat_boundaries=0 1
cat_threshold=8
is_linear=0
shrinkage=0.05


Tree=106
num_leaves=2
num_cat=1
split_feature=0
split_gain=0.0363186
threshold=0
decision_type=1
left_child=-1
right_child=-2
leaf_value=0.0079269000374597321 -0.004243707210684804
leaf_weight=0.43254000929664471 1.186800077819498
leaf_count=8770 30830
internal_value=0.0217522
internal_weight=1.61934
internal_count=39600
cat_boundaries=0 1
cat_threshold=520
is_linear=0
shrinkage=0.05


Tree=107
num_leaves=4
num_cat=3
split_feature=0 0 1
split_gain=41.4022 7.37188 2.40771
threshold=0 1 2
decision_type=1 1 9
left_child=1 -1 -3
right_child=-2 2 -4
leaf_value=0.082834232524251886 -0.02926779823806366 0.023073924784331606 -0.011455263363572499
leaf_weight=6.2782917494187132 27.197293791279662 35.785456844023429 3.9894195734523228
leaf_count=4407 30786 3646 761
internal_value=0.0157803 0.0400441 0.018005
internal_weight=73.2505 46.0532 39.7749
internal_count=39600 8814 4407
cat_boundaries=0 1 2 3
cat_threshold=136 8 1
is_linear=0
shrinkage=0.05


Tree=108
num_leaves=15
num_cat=14
split_feature=0 1 2 0 0 1 0 0 0 2 0 2 2 0
split_gain=847.728 430.649 229.433 150.981 80.2486 115.405 111.329 44.9355 44.4918 41.7053 21.9941 12.1721 10.1291 1.06023
threshold=0 1 2 3 4 5 6 7 8 9 10 11 12 13
decision_type=1 9 9 1 1 9 1 1 1 9 1 9 9 1
left_child=1 7 4 11 5 6 -2 -1 -7 -9 -5 -3 -6 -11
right_child=2 3 -4 10 12 8 -8 9 -10 13 -12 -13 -14 -15
leaf_value=-0.042182044763525509 0.045977394557981943 0.0083667264603133687 0.038372374328784875 0.025532401407390916 -0.027337860595035457 -0.012230491739301706 -0.016105698325454911 0.0021735349243234489 -0.031821212732370471 -0.039976847788317775 0.040720247055016284 0.035483426507743651 -0.040383530701875024 -0.015111081796663468
leaf_weight=176.34648954123259 128.26433984935284 821.55632130801678 152.21160093694925 500.89031103253365 603.16763912141323 631.2633056640625 145.41691361367702 232.63641893863678 609.55140647292137 83.370258718729019 1123.1123558878899 36.523774743080139 511.07015165686607 52.930415779352188
leaf_count=1461 659 3355 1422 4058 4039 3364 669 775 3373 639 11043 298 4085 360
internal_value=8.46374e-05 0.0183634 -0.0198086 0.0272034 -0.0233101 -0.0155487 0.0135854 -0.0216406 -0.0220319 -0.0109681 0.0362208 0.0099164 -0.0336275 -0.0320135
internal_weight=5808.31 3027.37 2780.95 2482.08 2628.73 1514.5 273.681 545.284 1240.81 368.937 1624 858.08 1114.24 136.301
internal_count=39600 21989 17611 18754 16189 8065 1328 3235 6737 1774 15101 3653 8124 999
cat_boundaries=0 1 2 3 4 5 6 7 8 9 10 11 12 13 14
cat_threshold=992 2 3 32 24 2 8 160 16 2 256 2 2 64
is_linear=0
shrinkage=0.05


Tree=109
num_leaves=14
num_cat=13
split_feature=0 1 2 0 1 0 0 1 0 2 2 2 0
split_gain=839.078 449.322 224.003 173.28 172.481 119.512 90.8338 106.067 45.3895 41.5981 12.2528 9.96726 0.971428
threshold=0 1 2 3 4 5 6 7 8 9 10 11 12
decision_type=1 9 9 1 9 1 1 9 1 9 9 9 1
left_child=2 8 6 4 5 10 11 -8 -2 12 -3 -1 -10
right_child=1 3 -4 -5 -6 -7 7 -9 9 -11 -12 -13 -14
leaf_value=0.040445538645776546 0.042355305515927075 -0.008181685818727023 -0.038300713733559325 -0.042787357373528082 0.046768836760927759 -0.042843189387740371 0.020790882943951705 -0.013381221424971459 0.040036967763926318 -0.001995967256184927 -0.035411754897729929 0.027469652052058032 0.0152737208348444
leaf_weight=513.9399551898241 179.9610447883606 819.57388319075108 151.15358546376228 1088.2247922942042 93.909489750862122 404.43597899377346 1246.7672380805016 272.62502288818359 83.82207964360714 232.41912424564362 36.316782146692276 606.0589310079813 53.187864482402802
leaf_count=4085 1461 3355 1422 11043 432 3626 6737 1328 639 775 298 4039 360
internal_value=-0.000301101 -0.0186652 0.0193852 -0.0278551 -0.0156304 -0.0206114 0.0228209 0.014612 0.0219587 0.0111684 -0.00973272 0.0337292 0.0321166
internal_weight=5782.4 2991.85 2790.54 2442.46 1354.24 1260.33 2639.39 1519.39 549.39 369.429 855.891 1120 137.01
internal_count=39600 21989 17611 18754 7711 7279 16189 8065 3235 1774 3653 8124 999
cat_boundaries=0 1 2 3 4 5 6 7 8 9 10 11 12 13
cat_threshold=3096 2 3 288 1 32 3072 1 160 1 2 1 64
is_linear=0
shrinkage=0.05


Tree=110
num_leaves=2
num_cat=1
split_feature=0
split_gain=0.210192
threshold=0
decision_type=1
left_child=-1
right_child=-2
leaf_value=0.01281552842809314 -0.0061710504483671394
leaf_weight=0.41358038278849563 1.8240998441760896
leaf_count=4407 35193
internal_value=0.0270318
internal_weight=2.23768
internal_count=39600
cat_boundaries=0 1
cat_threshold=8
is_linear=0
shrinkage=0.05


Tree=111
num_leaves=2
num_cat=1
split_feature=0
split_gain=0.00169513
threshold=0
decision_type=1
left_child=-1
right_child=-2
leaf_value=0.0079581876722198998 -0.0041510721436066669
leaf_weight=0.42573421993074589 1.1578947542038802
leaf_count=8770 30830
internal_value=0.0231448
internal_weight=1.58363
internal_count=39600
cat_boundaries=0 1
cat_threshold=520
is_linear=0
shrinkage=0.05


Tree=112
num_leaves=3
num_cat=2
split_feature=0 2
split_gain=39.9464 8.42063
threshold=0 1
decision_type=1 9
left_child=1 -1
right_child=-2 -3
leaf_value=0.050691957986842118 -0.028871936883243798 -0.015714792409073274
leaf_weight=39.478034048341215 25.880517338868231 6.4589054145617402
leaf_count=4183 30786 4631
internal_value=0.0168977 0.0402148
internal_weight=71.8175 45.9369
internal_count=39600 8814
cat_boundaries=0 1 2
cat_threshold=136 1
is_linear=0
shrinkage=0.05


Tree=113
num_leaves=16
num_cat=15
split_feature=0 1 2 0 0 1 0 0 0 2 0 2 0 0 1
split_gain=750.67 384.852 205.322 146.716 75.8311 101.603 106.878 43.7944 43.0304 38.1309 22.0901 11.6541 10.8652 1.25909 0.166749
threshold=0 1 2 3 4 5 6 7 8 9 10 11 12 13 14
decision_type=1 9 9 1 1 9 1 1 1 9 1 9 1 1 9
left_child=1 8 4 11 5 6 -2 -7 -1 -10 -5 -3 14 -11 -6
right_child=2 3 -4 10 12 7 -8 -9 9 13 -12 -13 -14 -15 -16
leaf_value=-0.041637221662728569 0.045348514973418498 0.007772050451460559 0.037736294543020979 0.024675631553943995 -0.016301157996082831 -0.011174342339981991 -0.015983936320618296 -0.030814139855147304 0.0020126758636667928 -0.039306363939791769 0.040194667506936732 0.03478496525217302 -0.039696599093466962 -0.014366500902766262 -0.028289103349747321
leaf_weight=164.9546645283699 123.64991644024849 815.18536292016506 143.00934203714132 477.99423162639141 114.61564648151398 618.14383447170258 145.63064633309841 588.80850650370121 232.43968039751053 78.383365362882614 1049.9013803973794 34.563051849603653 479.78663824498653 51.768809974193573 464.93690353631973
leaf_count=1461 659 3355 1422 4058 801 3364 669 3373 775 639 11043 298 4085 360 3238
internal_value=7.44921e-05 0.0176487 -0.0189815 0.0262214 -0.0223162 -0.0147336 0.0127944 -0.02093 -0.0207575 -0.010396 0.0355316 0.0092626 -0.0326461 -0.0311192 -0.026235
internal_weight=5583.77 2905.19 2678.58 2377.64 2535.57 1476.23 269.281 1206.95 527.547 362.592 1527.9 849.748 1059.34 130.152 579.553
internal_count=39600 21989 17611 18754 16189 8065 1328 6737 3235 1774 15101 3653 8124 999 4039
cat_boundaries=0 1 2 3 4 5 6 7 8 9 10 11 12 13 14 15
cat_threshold=992 2 3 32 24 2 8 16 160 2 256 2 2048 64 5
is_linear=0
shrinkage=0.05


Tree=114
num_leaves=15
num_cat=14
split_feature=0 1 2 0 1 0 0 1 0 2 2 0 0 1
split_gain=742.942 402.586 200.177 171.405 164.787 117.029 86.1055 92.7349 43.4947 38.0434 11.7277 10.7043 1.17244 0.0925729
threshold=0 1 2 3 4 5 6 7 8 9 10 11 12 13
decision_type=1 9 9 1 9 1 1 9 1 9 9 1 1 9
left_child=2 8 6 4 5 10 11 -8 -2 12 -3 -1 -10 -13
right_child=1 3 -4 -5 -6 -7 7 -9 9 -11 -12 13 -14 -15
leaf_value=0.039758151343067469 0.04180732221295546 -0.0075901229546735671 -0.037661739820630868 -0.042417281493137692 0.046492829795333729 -0.042474208714097836 0.019662846297803224 -0.012581225618238406 0.039365504285499717 -0.0018396570338576627 -0.034713715309204279 0.028412576955281002 0.014528422335248295 0.016470533161346904
leaf_weight=482.54813723266125 168.47417277097702 813.23672033846378 141.95986209064722 1015.0973996371031 92.809965014457703 382.71343450248241 1213.1715450137854 268.18753938376904 78.818875372409821 232.22615048289299 34.363677173852921 467.18805366754532 52.019045859575272 115.1723059117794
leaf_count=4085 1461 3355 1422 11043 432 3626 6737 1328 639 775 298 3238 360 801
internal_value=-0.000310658 -0.0179728 0.018542 -0.0269015 -0.0147689 -0.0197278 0.0218106 0.0137801 0.0210758 0.0105929 -0.00908173 0.0327494 0.0312234 0.0263687
internal_weight=5557.99 2869.76 2688.23 2338.22 1323.12 1230.31 2546.27 1481.36 531.538 363.064 847.6 1064.91 130.838 582.36
internal_count=39600 21989 17611 18754 7711 7279 16189 8065 3235 1774 3653 8124 999 4039
cat_boundaries=0 1 2 3 4 5 6 7 8 9 10 11 12 13 14
cat_threshold=3096 2 3 288 1 32 3072 1 160 1 2 1024 64 2
is_linear=0
shrinkage=0.05


Tree=115
num_leaves=2
num_cat=1
split_feature=0
split_gain=0.140603
threshold=0
decision_type=1
left_child=-1
right_child=-2
leaf_value=0.012822207452172133 -0.0060281056865669046
leaf_weight=0.41226374210236827 1.7743516678165181
leaf_count=4407 35193
internal_value=0.0285972
internal_weight=2.18662
internal_count=39600
cat_boundaries=0 1
cat_threshold=8
is_linear=0
shrinkage=0.05


Tree=116
num_leaves=1
num_cat=0
split_feature=
split_gain=
threshold=
decision_type=
left_child=
right_child=
leaf_value=0
leaf_weight=
leaf_count=39600
internal_value=
internal_weight=
internal_count=
is_linear=0
shrinkage=1


Tree=117
num_leaves=3
num_cat=2
split_feature=0 2
split_gain=37.8039 7.74781
threshold=0 1
decision_type=1 9
left_child=1 -1
right_child=-2 -3
leaf_value=0.049466005165808097 -0.028473773311300899 -0.015405943147996794
leaf_weight=40.151049968786538 24.646609427407384 6.2529474996845229
leaf_count=4183 30786 4631
internal_value=0.0175067 0.0395429
internal_weight=71.0506 46.404
internal_count=39600 8814
cat_boundaries=0 1 2
cat_threshold=136 1
is_linear=0
shrinkage=0.05


Tree=118
num_leaves=17
num_cat=16
split_feature=0 1 2 0 1 0 0 1 0 0 0 2 2 2 0 1
split_gain=664.849 343.864 183.747 142.312 157.848 114.076 71.5345 89.3626 102.539 43.0347 41.1775 34.8571 11.5281 11.1411 1.44182 0.282468
threshold=0 1 2 3 4 5 6 7 8 9 10 11 12 13 14 15
decision_type=1 9 9 1 9 1 1 9 1 1 1 9 9 9 1 9
left_child=1 10 6 -3 5 -5 7 8 -2 -9 -1 -12 15 -7 -13 -8
right_child=2 3 -4 4 -6 13 12 9 -10 -11 11 14 -14 -15 -16 -17
